<?xml version="1.0"?>
<opencv_storage>
<stage2>
  <maxWeakCount>42</maxWeakCount>
  <stageThreshold>-1.8956730365753174e+00</stageThreshold>
  <weakClassifiers>
    <_>
      <internalNodes>
        0 -1 120 -1342230738 -268435457 -1 -1 -129 -1 -1 -1</internalNodes>
      <leafValues>
        -1.2733937501907349e+00 4.1599181294441223e-01</leafValues></_>
    <_>
      <internalNodes>
        0 -1 5755 -9016 -1 -4544 -1 -8370 -1 -37056 -1</internalNodes>
      <leafValues>
        -8.6214137077331543e-01 5.7786130905151367e-01</leafValues></_>
    <_>
      <internalNodes>
        0 -1 8382 -1359007890 -285212673 -1 -16777217 -129 -1 -1 -1</internalNodes>
      <leafValues>
        -5.0937730073928833e-01 4.9640628695487976e-01</leafValues></_>
    <_>
      <internalNodes>
        0 -1 696 -1 -1 -2 -16777217 -1 -1 -11 -1</internalNodes>
      <leafValues>
        -2.2618791460990906e-01 7.4295181035995483e-01</leafValues></_>
    <_>
      <internalNodes>
        0 -1 3252 -18 -1 -2 -16777217 -1 -1 -1 -1</internalNodes>
      <leafValues>
        -3.4670695662498474e-01 3.7377786636352539e-01</leafValues></_>
    <_>
      <internalNodes>
        0 -1 5175 -210 805306351 -16777502 -16777217 -129 2147483647 -9
        1962409983</internalNodes>
      <leafValues>
        -5.8547949790954590e-01 2.2422254085540771e-01</leafValues></_>
    <_>
      <internalNodes>
        0 -1 7083 -17 -1 -2 -16777217 -1 -1 -9 -134217729</internalNodes>
      <leafValues>
        -2.8368726372718811e-01 4.5846047997474670e-01</leafValues></_>
    <_>
      <internalNodes>
        0 -1 7446 -1360069252 40271733 -570490882 644939775 268435311
        611843957 1694465919 74809341</internalNodes>
      <leafValues>
        -7.1427810192108154e-01 1.5636549890041351e-01</leafValues></_>
    <_>
      <internalNodes>
        0 -1 6605 -1073856734 -1342177346 -2 -285278209 -161 2147483647
        -268 -453705731</internalNodes>
      <leafValues>
        -4.2600589990615845e-01 1.9338664412498474e-01</leafValues></_>
    <_>
      <internalNodes>
        0 -1 473 -268505554 1879011071 -4354 985595903 1440568951
        1148682103 2113927157 74907639</internalNodes>
      <leafValues>
        -6.4725857973098755e-01 1.4024771749973297e-01</leafValues></_>
    <_>
      <internalNodes>
        0 -1 8453 -1 -285212673 -1 -16842753 -1 -1 -9 -65547</internalNodes>
      <leafValues>
        -1.9569341838359833e-01 3.3086389303207397e-01</leafValues></_>
    <_>
      <internalNodes>
        0 -1 5256 -1433764664 -1397817366 -1118482 81985518 -2138628 -1
        2130673510 83779583</internalNodes>
      <leafValues>
        -5.8821344375610352e-01 1.1919288337230682e-01</leafValues></_>
    <_>
      <internalNodes>
        0 -1 5503 -82 -1073741825 -65 -134217729 2147483598 1459617791
        1979711487 939524095</internalNodes>
      <leafValues>
        -2.3140604794025421e-01 2.5622418522834778e-01</leafValues></_>
    <_>
      <internalNodes>
        0 -1 3964 -18 -268435457 -2 -16777217 -129 2147483647 -9 -1</internalNodes>
      <leafValues>
        -3.6069783568382263e-01 1.5388460457324982e-01</leafValues></_>
    <_>
      <internalNodes>
        0 -1 666 -268435474 1862270975 -16777490 -16777233 2147483479
        2147483647 2147483476 1962409983</internalNodes>
      <leafValues>
        -4.1432756185531616e-01 1.6996243596076965e-01</leafValues></_>
    <_>
      <internalNodes>
        0 -1 8463 -268435474 -285212673 -10 -285278210 -129 2147483647
        -139 1996423156</internalNodes>
      <leafValues>
        -3.6878523230552673e-01 1.5719208121299744e-01</leafValues></_>
    <_>
      <internalNodes>
        0 -1 6 -1359073668 -1 -1 -1 -129 -1 -3 -1073774595</internalNodes>
      <leafValues>
        -3.4264993667602539e-01 1.3800735771656036e-01</leafValues></_>
    <_>
      <internalNodes>
        0 -1 5400 -1078001666 1069481982 -2 -131087 -16777218 -1
        -16842753 1056964607</internalNodes>
      <leafValues>
        -1.8148109316825867e-01 3.0591809749603271e-01</leafValues></_>
    <_>
      <internalNodes>
        0 -1 4937 -2 -268435457 -1 -285212673 -1 -1 -1 2147483647</internalNodes>
      <leafValues>
        1.2194812297821045e-01 -3.9599794149398804e-01</leafValues></_>
    <_>
      <internalNodes>
        0 -1 591 1659829856 -320274492 1625711138 709295919 2138537796
        74776420 1996455237 1145470801</internalNodes>
      <leafValues>
        -1.1229228973388672e+00 9.5068261027336121e-02</leafValues></_>
    <_>
      <internalNodes>
        0 -1 1568 2129559206 35794606 615710702 581959595 -268468969
        1145470838 1971322874 67108863</internalNodes>
      <leafValues>
        -5.5986368656158447e-01 1.0471063107252121e-01</leafValues></_>
    <_>
      <internalNodes>
        0 -1 8378 783974308 -285212673 -65537 -16842753 -32770 -1 -1
        -1073840130</internalNodes>
      <leafValues>
        -3.8932713866233826e-01 1.1552964150905609e-01</leafValues></_>
    <_>
      <internalNodes>
        0 -1 6909 -1140891896 574586815 -151012384 854753271 671045440
        5734231 939488608 561346421</internalNodes>
      <leafValues>
        -1.1986894607543945e+00 9.3210101127624512e-02</leafValues></_>
    <_>
      <internalNodes>
        0 -1 222 2062491680 107443887 603660802 867958779 1172718916
        1413939021 1442742020 391315295</internalNodes>
      <leafValues>
        -9.3407523632049561e-01 6.1500735580921173e-02</leafValues></_>
    <_>
      <internalNodes>
        0 -1 140 217976388 662666622 -8460548 1065181098 1173632852
        1467447159 1425294453 359929719</internalNodes>
      <leafValues>
        -8.0988425016403198e-01 6.4512342214584351e-02</leafValues></_>
    <_>
      <internalNodes>
        0 -1 5347 -17 -1 -2 -1 -1 2147483647 -1 -1</internalNodes>
      <leafValues>
        -1.2477397173643112e-01 3.8404497504234314e-01</leafValues></_>
    <_>
      <internalNodes>
        0 -1 2667 -268435606 -420544530 -268435484 -487653378 -32953
        1165492095 -16779664 1693941750</internalNodes>
      <leafValues>
        -9.3567788600921631e-01 6.0350231826305389e-02</leafValues></_>
    <_>
      <internalNodes>
        0 -1 6884 716721216 170557432 -50332160 1000911473 1708606464
        1450669911 1686074368 74807156</internalNodes>
      <leafValues>
        -1.3428835868835449e+00 4.5467752963304520e-02</leafValues></_>
    <_>
      <internalNodes>
        0 -1 3290 -353440084 653192942 -16847194 1247735754 2147450695
        1879048063 1996488534 1082130423</internalNodes>
      <leafValues>
        -8.2047629356384277e-01 6.0258883982896805e-02</leafValues></_>
    <_>
      <internalNodes>
        0 -1 5479 -1 -268435457 -1 -285212673 -1 -1 -1 2147483647</internalNodes>
      <leafValues>
        1.4565160870552063e-01 -3.1997323036193848e-01</leafValues></_>
    <_>
      <internalNodes>
        0 -1 4053 -927269376 3080102 11405826 2269986 -1325727896
        1507180 1442837110 270595879</internalNodes>
      <leafValues>
        -1.0121425390243530e+00 8.6984664201736450e-02</leafValues></_>
    <_>
      <internalNodes>
        0 -1 5940 -18 -2 -10 -1 -2 2147483647 -16809993 922025981</internalNodes>
      <leafValues>
        -1.8920524418354034e-01 2.4835644662380219e-01</leafValues></_>
    <_>
      <internalNodes>
        0 -1 729 -1 -1 -2 -16777217 -1 -1 -9 -1</internalNodes>
      <leafValues>
        -1.5467563271522522e-01 3.5529926419258118e-01</leafValues></_>
    <_>
      <internalNodes>
        0 -1 4516 783822368 671092224 -1494078328 2560 779916876
        83771380 548024143 7388976</internalNodes>
      <leafValues>
        -1.4600754976272583e+00 7.8291192650794983e-02</leafValues></_>
    <_>
      <internalNodes>
        0 -1 8254 -1 -268435457 -1 -16777217 -1 -1 -1 -1</internalNodes>
      <leafValues>
        -1.5693435072898865e-01 3.9214059710502625e-01</leafValues></_>
    <_>
      <internalNodes>
        0 -1 3305 -353442300 707722926 -487659872 573243374 1954508612
        1180696575 1996451428 1115651959</internalNodes>
      <leafValues>
        -1.1907184123992920e+00 7.6614201068878174e-02</leafValues></_>
    <_>
      <internalNodes>
        0 -1 2962 -1 -285212673 -1 -285212673 -1 2147483647 -1
        2147483647</internalNodes>
      <leafValues>
        1.6057646274566650e-01 -2.7635046839714050e-01</leafValues></_>
    <_>
      <internalNodes>
        0 -1 5747 -1122872 -1078001670 -2 -6 -129 -1 -10 671055871</internalNodes>
      <leafValues>
        -1.9028927385807037e-01 2.4878083169460297e-01</leafValues></_>
    <_>
      <internalNodes>
        0 -1 1649 -17 -268435457 -2 -16777217 -1 2147483647 -1
        -134217729</internalNodes>
      <leafValues>
        -2.7896830439567566e-01 1.8703787028789520e-01</leafValues></_>
    <_>
      <internalNodes>
        0 -1 6358 -65688 -1073741825 -4110 -1 -137 2147483647 -16809993
        889159677</internalNodes>
      <leafValues>
        -2.0719264447689056e-01 2.3242847621440887e-01</leafValues></_>
    <_>
      <internalNodes>
        0 -1 3860 -18 -1 -2 -1 -1 2147483647 -1 2147483647</internalNodes>
      <leafValues>
        1.1865516006946564e-01 -3.3553433418273926e-01</leafValues></_>
    <_>
      <internalNodes>
        0 -1 470 1870138376 -830574722 -17891344 -1342242817 1114928196
        343150455 1156928628 74732917</internalNodes>
      <leafValues>
        -9.5132416486740112e-01 8.7580613791942596e-02</leafValues></_></weakClassifiers></stage2>
</opencv_storage>
