<?xml version="1.0"?>
<opencv_storage>
<stage7>
  <maxWeakCount>100</maxWeakCount>
  <stageThreshold>-1.8140432834625244e+00</stageThreshold>
  <weakClassifiers>
    <_>
      <internalNodes>
        0 -1 5990 -1 -1073741825 -1 -1 -1 -1 -1 -16777217</internalNodes>
      <leafValues>
        -7.4772065877914429e-01 3.4544569253921509e-01</leafValues></_>
    <_>
      <internalNodes>
        0 -1 8324 -1 -285212673 -1 -16777217 -1 -1 -1 -1</internalNodes>
      <leafValues>
        -2.5755825638771057e-01 4.0831351280212402e-01</leafValues></_>
    <_>
      <internalNodes>
        0 -1 7367 -1 -1 -1 -1 -32769 -1 -32769 -129</internalNodes>
      <leafValues>
        -1.2101656943559647e-01 6.1832851171493530e-01</leafValues></_>
    <_>
      <internalNodes>
        0 -1 5704 -1 -268435457 -1 -16777217 -1 -1 -9 -50528265</internalNodes>
      <leafValues>
        -2.1241421997547150e-01 2.8832271695137024e-01</leafValues></_>
    <_>
      <internalNodes>
        0 -1 64 -268484817 -268435457 -1 -1 -129 -1 -1 -1</internalNodes>
      <leafValues>
        -2.3089678585529327e-01 2.1336692571640015e-01</leafValues></_>
    <_>
      <internalNodes>
        0 -1 6532 -336644 -1078263810 -1 -268435457 -129 -1 -9 754778111</internalNodes>
      <leafValues>
        -2.2328279912471771e-01 1.9420282542705536e-01</leafValues></_>
    <_>
      <internalNodes>
        0 -1 5901 -338 -8 -66 -1 -1 -1 -16777225 922025983</internalNodes>
      <leafValues>
        -1.6504280269145966e-01 2.0802798867225647e-01</leafValues></_>
    <_>
      <internalNodes>
        0 -1 8187 -1 -1 -2 -16777217 -1 -1 -1 -134217729</internalNodes>
      <leafValues>
        -9.4723761081695557e-02 2.6641720533370972e-01</leafValues></_>
    <_>
      <internalNodes>
        0 -1 61 553590818 1945894910 587162658 858521599 2013263359
        2013265919 2013263359 2013265919</internalNodes>
      <leafValues>
        -4.0145757794380188e-01 6.5017245709896088e-02</leafValues></_>
    <_>
      <internalNodes>
        0 -1 5795 -1073741827 -1073741825 -1 -1 -1 -1 -1 -1392508929</internalNodes>
      <leafValues>
        -9.3893289566040039e-02 2.3939917981624603e-01</leafValues></_>
    <_>
      <internalNodes>
        0 -1 2969 -1 -1048578 -1 1056964607 -1 -1 -1 -1</internalNodes>
      <leafValues>
        -8.2535706460475922e-02 2.9269075393676758e-01</leafValues></_>
    <_>
      <internalNodes>
        0 -1 5918 -1 -1 -1 -1 -1 -1 -1 -134217729</internalNodes>
      <leafValues>
        -3.7153188139200211e-02 8.3771985769271851e-01</leafValues></_>
    <_>
      <internalNodes>
        0 -1 2174 -18 -268435457 -18 -1 -1 -1 -1 -1</internalNodes>
      <leafValues>
        1.5204472839832306e-01 -1.5194754302501678e-01</leafValues></_>
    <_>
      <internalNodes>
        0 -1 3493 -278 -269484049 -1359009278 -1140850690 -1 2147483647
        -1 -1</internalNodes>
      <leafValues>
        -3.4615901112556458e-01 7.1491554379463196e-02</leafValues></_>
    <_>
      <internalNodes>
        0 -1 4967 -2 -268435457 -1 -285212673 -1 -1 -1 -1</internalNodes>
      <leafValues>
        8.8844679296016693e-02 -2.3846620321273804e-01</leafValues></_>
    <_>
      <internalNodes>
        0 -1 39 -1 2147483647 -1 2147483647 -1 1610612735 -1 2013265919</internalNodes>
      <leafValues>
        -1.1338809132575989e-01 1.6227631270885468e-01</leafValues></_>
    <_>
      <internalNodes>
        0 -1 3571 -268435458 -1 -1 -1073807361 -1 -1 -1 1073741823</internalNodes>
      <leafValues>
        -7.3413185775279999e-02 2.3310932517051697e-01</leafValues></_>
    <_>
      <internalNodes>
        0 -1 4339 -1363214338 788463614 -65538 788430847 -1 -1 -65537
        788463615</internalNodes>
      <leafValues>
        2.2710728645324707e-01 -8.6420342326164246e-02</leafValues></_>
    <_>
      <internalNodes>
        0 -1 5707 -1090584578 -1 -1 -1 -32769 -1 -1 754941951</internalNodes>
      <leafValues>
        -1.2828187644481659e-01 1.3780371844768524e-01</leafValues></_>
    <_>
      <internalNodes>
        0 -1 8324 -1342177281 -285212673 -1 -16777217 -1 -1 -1 -1</internalNodes>
      <leafValues>
        1.2819042801856995e-01 -1.4342717826366425e-01</leafValues></_>
    <_>
      <internalNodes>
        0 -1 8400 -1364656200 -285278209 -65537 -16842753 -2 -1 -65537
        -1073971202</internalNodes>
      <leafValues>
        -3.3870452642440796e-01 7.9462856054306030e-02</leafValues></_>
    <_>
      <internalNodes>
        0 -1 729 -1 -1 -2 -16777217 -1 -1 -12 2013265919</internalNodes>
      <leafValues>
        -1.2848460674285889e-01 1.3413201272487640e-01</leafValues></_>
    <_>
      <internalNodes>
        0 -1 6114 -32798 -272629765 -18 -268435457 -177 -1 -12
        -1342210049</internalNodes>
      <leafValues>
        -1.5149977803230286e-01 1.0640772432088852e-01</leafValues></_>
    <_>
      <internalNodes>
        0 -1 5990 -18 -1 -2 -16777217 -1 -1 -9 1996488703</internalNodes>
      <leafValues>
        1.0805559903383255e-01 -1.4401346445083618e-01</leafValues></_>
    <_>
      <internalNodes>
        0 -1 5862 -1 -1 -2 -1 -1 2147483647 -1 -1</internalNodes>
      <leafValues>
        -6.2939420342445374e-02 2.2759112715721130e-01</leafValues></_>
    <_>
      <internalNodes>
        0 -1 3241 179845808 2239018 -287146258 10627754 761625964
        561512447 2130531574 6575871</internalNodes>
      <leafValues>
        -1.3123053312301636e+00 1.4810859225690365e-02</leafValues></_>
    <_>
      <internalNodes>
        0 -1 53 7733248 573195778 585826816 589505138 1164854340
        1162180429 1171027200 89226565</internalNodes>
      <leafValues>
        -1.7425181865692139e+00 1.5338720753788948e-02</leafValues></_>
    <_>
      <internalNodes>
        0 -1 5389 -1 -268435457 -1 -285212673 -1 -1 -1 2147483647</internalNodes>
      <leafValues>
        9.2201352119445801e-02 -1.4300236105918884e-01</leafValues></_>
    <_>
      <internalNodes>
        0 -1 4797 -1359020034 -1359020033 -1 -285212673 -1 -1 -1
        788529151</internalNodes>
      <leafValues>
        1.4188796281814575e-01 -1.0813972353935242e-01</leafValues></_>
    <_>
      <internalNodes>
        0 -1 5162 -18 -1 -2 -1 -1 -1 -1 1996488703</internalNodes>
      <leafValues>
        -1.0260637849569321e-01 1.4778275787830353e-01</leafValues></_>
    <_>
      <internalNodes>
        0 -1 4167 209612544 2948902 7218338 6487914 -186 7864319
        1107292782 1148125031</internalNodes>
      <leafValues>
        -5.7606154680252075e-01 2.6897288858890533e-02</leafValues></_>
    <_>
      <internalNodes>
        0 -1 1082 2122213892 644001646 2130640604 548863995 1148667460
        4525895 1979152247 276068294</internalNodes>
      <leafValues>
        -1.1821563243865967e+00 1.6257813200354576e-02</leafValues></_>
    <_>
      <internalNodes>
        0 -1 7082 -17 -268435457 -2 -1 -1 -1 -9 -134217729</internalNodes>
      <leafValues>
        -8.6130775511264801e-02 1.6044326126575470e-01</leafValues></_>
    <_>
      <internalNodes>
        0 -1 4042 -1 -1 -2 -1 -1 -1 -1 -1</internalNodes>
      <leafValues>
        -7.3483131825923920e-02 1.7844067513942719e-01</leafValues></_>
    <_>
      <internalNodes>
        0 -1 57 -268439762 -268435457 -18 -16777217 -129 2147483647 -9
        2013265919</internalNodes>
      <leafValues>
        1.9353699684143066e-01 -7.5500354170799255e-02</leafValues></_>
    <_>
      <internalNodes>
        0 -1 8354 -1 -285212673 -1 -285212673 -1 -1 -1 2147483647</internalNodes>
      <leafValues>
        1.4749424159526825e-01 -9.0881742537021637e-02</leafValues></_>
    <_>
      <internalNodes>
        0 -1 2070 69468192 606238250 36381186 573472366 360011142
        1410596735 2013230370 1865318318</internalNodes>
      <leafValues>
        -8.2735568284988403e-01 1.9617026671767235e-02</leafValues></_>
    <_>
      <internalNodes>
        0 -1 8461 -1 -268435457 -2 -16842753 -1 -1 -9 -1</internalNodes>
      <leafValues>
        -9.3530647456645966e-02 1.3634803891181946e-01</leafValues></_>
    <_>
      <internalNodes>
        0 -1 5774 -98420 -1363214405 -18 -1375797250 -32786 -1 -12
        620724223</internalNodes>
      <leafValues>
        -1.8621818721294403e-01 7.1348264813423157e-02</leafValues></_>
    <_>
      <internalNodes>
        0 -1 133 712901632 523394926 -33655568 587103614 108344660
        1475706741 343168372 276042868</internalNodes>
      <leafValues>
        -1.1266769170761108e+00 1.5021198429167271e-02</leafValues></_>
    <_>
      <internalNodes>
        0 -1 4522 618799104 -534712702 2097152 263520 1156462604
        1870069598 539623488 2323957</internalNodes>
      <leafValues>
        -2.2596294879913330e+00 1.2417211197316647e-02</leafValues></_>
    <_>
      <internalNodes>
        0 -1 230 83689984 1948319522 104533504 36879154 1415531556
        355991167 1148666976 1417150207</internalNodes>
      <leafValues>
        -6.4015716314315796e-01 2.1641213446855545e-02</leafValues></_>
    <_>
      <internalNodes>
        0 -1 414 -18 -16777217 -22 -16777217 -137 2013265919 -137
        2013265919</internalNodes>
      <leafValues>
        1.4996959269046783e-01 -9.6768453717231750e-02</leafValues></_>
    <_>
      <internalNodes>
        0 -1 563 -65538 -1 -2 -65537 -9 -1 -11 -65540</internalNodes>
      <leafValues>
        -1.2368299067020416e-01 1.0558966547250748e-01</leafValues></_>
    <_>
      <internalNodes>
        0 -1 1670 1073626996 -1 -1 -1 -32907 -1 -32907 2147450869</internalNodes>
      <leafValues>
        2.2039432823657990e-01 -6.4252965152263641e-02</leafValues></_>
    <_>
      <internalNodes>
        0 -1 8401 -1342177297 -268435457 -1 -16777217 -129 -1 -1 -1</internalNodes>
      <leafValues>
        -1.1218877881765366e-01 1.1849594116210938e-01</leafValues></_>
    <_>
      <internalNodes>
        0 -1 7226 -1 -1 -1 -1 -129 -1 -137 -1</internalNodes>
      <leafValues>
        8.4916569292545319e-02 -1.6499660909175873e-01</leafValues></_>
    <_>
      <internalNodes>
        0 -1 4207 211814912 214478596 135145472 33963872 1844729664
        1568538615 1560174436 153463</internalNodes>
      <leafValues>
        -1.0104562044143677e+00 1.7490960657596588e-02</leafValues></_>
    <_>
      <internalNodes>
        0 -1 112 0 610461230 574234624 321074087 1146307652 340153684
        1442251840 357924181</internalNodes>
      <leafValues>
        -1.0284212827682495e+00 1.7015470191836357e-02</leafValues></_>
    <_>
      <internalNodes>
        0 -1 4835 -2002745344 10668704 1856937186 10502304 1979014260
        670432767 654201972 2366709</internalNodes>
      <leafValues>
        -1.2730860710144043e+00 1.4307470060884953e-02</leafValues></_>
    <_>
      <internalNodes>
        0 -1 443 -18 1862270975 -2 -16777217 -129 2013265919 -1
        2013265919</internalNodes>
      <leafValues>
        1.3964487612247467e-01 -8.6595959961414337e-02</leafValues></_>
    <_>
      <internalNodes>
        0 -1 6352 -2 -268435457 -2 -16777217 -1 -1 -9 -16777217</internalNodes>
      <leafValues>
        -8.5343278944492340e-02 1.3963046669960022e-01</leafValues></_>
    <_>
      <internalNodes>
        0 -1 1852 -286331286 577121838 -16846866 553271282 1191134292
        72765303 1962177909 5526903</internalNodes>
      <leafValues>
        -7.0653575658798218e-01 1.9036090001463890e-02</leafValues></_>
    <_>
      <internalNodes>
        0 -1 4802 -2065274880 783216558 -320280032 682389152 134179844
        671088639 -320442812 7826742</internalNodes>
      <leafValues>
        -1.1376847028732300e+00 1.4258789829909801e-02</leafValues></_>
    <_>
      <internalNodes>
        0 -1 588 -18 -1 -2 -1 -1 2147483647 -9 -134217729</internalNodes>
      <leafValues>
        -1.2459229677915573e-01 9.3504562973976135e-02</leafValues></_>
    <_>
      <internalNodes>
        0 -1 455 -18 -1 -274 -16777217 -137 2013265919 -137 2013265919</internalNodes>
      <leafValues>
        1.0806699097156525e-01 -1.0501710325479507e-01</leafValues></_>
    <_>
      <internalNodes>
        0 -1 6620 250309128 135397357 -33573376 1954004981 2002724100
        72843012 75432960 74536052</internalNodes>
      <leafValues>
        -7.7666050195693970e-01 1.8096184358000755e-02</leafValues></_>
    <_>
      <internalNodes>
        0 -1 8027 -268435473 -268435457 -1 -1 -1 -1 -1 -1</internalNodes>
      <leafValues>
        -6.8555675446987152e-02 1.7179115116596222e-01</leafValues></_>
    <_>
      <internalNodes>
        0 -1 265 1651647074 573238816 1659838976 581116647 2004239732
        71595844 1903654214 89093959</internalNodes>
      <leafValues>
        -1.0807014703750610e+00 1.3735149055719376e-02</leafValues></_>
    <_>
      <internalNodes>
        0 -1 5491 -18 -1 -18 -1 -1 -1 -9 -1</internalNodes>
      <leafValues>
        1.0523334890604019e-01 -1.0576108098030090e-01</leafValues></_>
    <_>
      <internalNodes>
        0 -1 6453 1873429504 1069219296 -286374912 -1902053564
        2013217792 2004320127 1961821184 620058485</internalNodes>
      <leafValues>
        -6.5576797723770142e-01 2.1354619413614273e-02</leafValues></_>
    <_>
      <internalNodes>
        0 -1 224 105907776 639990343 39846400 590557183 1423266884
        1146378052 1156928832 1450541021</internalNodes>
      <leafValues>
        -6.5493398904800415e-01 1.9418373703956604e-02</leafValues></_>
    <_>
      <internalNodes>
        0 -1 786 -17 -1 -1 -1 -1 -1 -1 -1</internalNodes>
      <leafValues>
        5.0584051758050919e-02 -2.4037460982799530e-01</leafValues></_>
    <_>
      <internalNodes>
        0 -1 2059 573186562 3075886 586033698 7269990 90662484
        1190657911 133640176 16217983</internalNodes>
      <leafValues>
        -1.3060470819473267e+00 1.2582269497215748e-02</leafValues></_>
    <_>
      <internalNodes>
        0 -1 4211 136326144 140836608 551952896 33718020 1996488548
        1415053287 1416101700 67534645</internalNodes>
      <leafValues>
        -8.1735599040985107e-01 1.5408206731081009e-02</leafValues></_>
    <_>
      <internalNodes>
        0 -1 4858 9052168 134807084 4849664 9600714 6178560 67796804
        7148560 2291650</internalNodes>
      <leafValues>
        -1.0725976228713989e+00 1.2962224893271923e-02</leafValues></_>
    <_>
      <internalNodes>
        0 -1 5367 -1231000536 671661600 787262570 67112480 1290567288
        784269311 247226228 74465137</internalNodes>
      <leafValues>
        -6.7105144262313843e-01 1.7872020602226257e-02</leafValues></_>
    <_>
      <internalNodes>
        0 -1 1707 1651695618 33718050 103940098 2260530 83846421
        274038647 1156531280 343408511</internalNodes>
      <leafValues>
        -9.1245681047439575e-01 1.4378066174685955e-02</leafValues></_>
    <_>
      <internalNodes>
        0 -1 43 -1 2147483647 -1 -1 -1 -1 -1 2147483647</internalNodes>
      <leafValues>
        -5.4329078644514084e-02 1.9554635882377625e-01</leafValues></_>
    <_>
      <internalNodes>
        0 -1 4053 -82 -16842753 -18 1996488703 -1 -1 -1 2013265919</internalNodes>
      <leafValues>
        1.0411993414163589e-01 -1.0631698369979858e-01</leafValues></_>
    <_>
      <internalNodes>
        0 -1 591 1122827840 183041892 -2065291776 575602543 2121561924
        1146388292 1459516740 71630672</internalNodes>
      <leafValues>
        -8.8499575853347778e-01 1.4893729239702225e-02</leafValues></_>
    <_>
      <internalNodes>
        0 -1 5870 3146752 78158850 805203488 10515744 922508644
        670498815 1048330000 2380836</internalNodes>
      <leafValues>
        -1.5229258537292480e+00 1.1927737854421139e-02</leafValues></_>
    <_>
      <internalNodes>
        0 -1 7450 805265268 -1 -1 -1 2147450741 2147483647 2147450741
        2013233013</internalNodes>
      <leafValues>
        1.9843059778213501e-01 -5.6497335433959961e-02</leafValues></_>
    <_>
      <internalNodes>
        0 -1 6408 -17 -1 -2 -1 -129 -1 -1 -1</internalNodes>
      <leafValues>
        -7.1408860385417938e-02 1.7604325711727142e-01</leafValues></_>
    <_>
      <internalNodes>
        0 -1 4618 201853952 12586240 1945907056 10495604 1425341812
        360185717 1291615604 6297460</internalNodes>
      <leafValues>
        -6.6749227046966553e-01 1.6683444380760193e-02</leafValues></_>
    <_>
      <internalNodes>
        0 -1 3686 -2 -268435457 -1 -16777217 -129 2147483647 -1
        2013265911</internalNodes>
      <leafValues>
        8.2167319953441620e-02 -1.3570490479469299e-01</leafValues></_>
    <_>
      <internalNodes>
        0 -1 193 569324034 607616554 2012677360 541030246 91715445
        590492531 341128564 271922485</internalNodes>
      <leafValues>
        -1.0560961961746216e+00 1.3351951725780964e-02</leafValues></_>
    <_>
      <internalNodes>
        0 -1 5633 2100736 212643808 -1359057184 585560032 528318276
        352157565 922517348 6575392</internalNodes>
      <leafValues>
        -1.0302150249481201e+00 1.3458529487252235e-02</leafValues></_>
    <_>
      <internalNodes>
        0 -1 6185 314458944 4390852 1358914560 1120993235 561463552
        67206924 1107235840 357921878</internalNodes>
      <leafValues>
        -9.3717402219772339e-01 1.3575037941336632e-02</leafValues></_>
    <_>
      <internalNodes>
        0 -1 6823 1110441984 255352436 1308378112 745561684 72614912
        1165318004 3408896 1070420</internalNodes>
      <leafValues>
        -1.9956759214401245e+00 1.0268324986100197e-02</leafValues></_>
    <_>
      <internalNodes>
        0 -1 3028 -18 -268435457 -1 1862205439 -1 2147483647 -1
        2013265919</internalNodes>
      <leafValues>
        1.0395931452512741e-01 -1.1206343770027161e-01</leafValues></_>
    <_>
      <internalNodes>
        0 -1 3629 -1427239424 581840490 -1426707936 547498534 2147442438
        625966927 2012706614 1349877623</internalNodes>
      <leafValues>
        -1.2438006401062012e+00 1.2575592845678329e-02</leafValues></_>
    <_>
      <internalNodes>
        0 -1 880 48635904 573448736 586818048 551742058 1699636548
        1413506885 1987524356 67336005</internalNodes>
      <leafValues>
        -1.2808860540390015e+00 1.1406154371798038e-02</leafValues></_>
    <_>
      <internalNodes>
        0 -1 1369 -285315570 3075950 -16847130 49217278 1191134788
        72513367 1995916372 6584145</internalNodes>
      <leafValues>
        -1.8791602849960327e+00 1.0442155413329601e-02</leafValues></_>
    <_>
      <internalNodes>
        0 -1 6186 -34 -1 -1 -1 2147483407 2004877311 2013265783
        2013265919</internalNodes>
      <leafValues>
        1.2840540707111359e-01 -7.8188993036746979e-02</leafValues></_>
    <_>
      <internalNodes>
        0 -1 6300 -17 -1342177281 -18 -16777217 -1 -1 -9 -150994945</internalNodes>
      <leafValues>
        -9.4149522483348846e-02 1.0865429043769836e-01</leafValues></_>
    <_>
      <internalNodes>
        0 -1 5553 1576463880 65324 1894741504 6716962 52839424 29952
        6780480 2127712</internalNodes>
      <leafValues>
        -1.2874808311462402e+00 1.2286899611353874e-02</leafValues></_>
    <_>
      <internalNodes>
        0 -1 3793 42500256 2271778 -1226169278 2758698 762608748
        209125375 1853774308 619741</internalNodes>
      <leafValues>
        -1.5770146846771240e+00 1.1017841286957264e-02</leafValues></_>
    <_>
      <internalNodes>
        0 -1 5189 67111936 209739392 -1362199968 614604656 208946260
        83124213 1056331024 2101824</internalNodes>
      <leafValues>
        -1.0208767652511597e+00 1.2874596752226353e-02</leafValues></_>
    <_>
      <internalNodes>
        0 -1 124 -2 -1 -1 -1 -1 -1 -1 -1</internalNodes>
      <leafValues>
        -2.9606007039546967e-02 3.4192463755607605e-01</leafValues></_>
    <_>
      <internalNodes>
        0 -1 2994 -2071584736 3624 1291586724 2232036 1178948692
        73692535 1996322806 6579572</internalNodes>
      <leafValues>
        -9.9481862783432007e-01 1.2628473341464996e-02</leafValues></_>
    <_>
      <internalNodes>
        0 -1 5669 -1 -268435457 -1 -285212673 -1 -1 -9 2147483647</internalNodes>
      <leafValues>
        7.6008901000022888e-02 -1.3788816332817078e-01</leafValues></_>
    <_>
      <internalNodes>
        0 -1 8398 0 15499086 1046408936 37257086 133172736 83230719
        251288916 7342164</internalNodes>
      <leafValues>
        -2.0534539222717285e+00 1.0368390008807182e-02</leafValues></_>
    <_>
      <internalNodes>
        0 -1 6152 1088999424 444006120 16647168 166813154 1450975232
        1461157662 339673092 276125012</internalNodes>
      <leafValues>
        -7.5020170211791992e-01 1.6189064830541611e-02</leafValues></_>
    <_>
      <internalNodes>
        0 -1 697 238292000 646201076 754904808 36863924 503217984
        746332031 242488852 4144</internalNodes>
      <leafValues>
        -1.1296987533569336e+00 1.1966373771429062e-02</leafValues></_>
    <_>
      <internalNodes>
        0 -1 5292 753707040 720266940 -285280668 15527914 2146332228
        671088639 1962835556 16019316</internalNodes>
      <leafValues>
        -7.3310095071792603e-01 1.6040265560150146e-02</leafValues></_>
    <_>
      <internalNodes>
        0 -1 5014 -487595520 577699694 -486555648 548072362 1476351044
        1147535175 1962898496 1078755302</internalNodes>
      <leafValues>
        -1.1308016777038574e+00 1.2141557410359383e-02</leafValues></_>
    <_>
      <internalNodes>
        0 -1 8094 183381536 15138662 -85042516 3161714 90648420 7864183
        1207916005 7350774</internalNodes>
      <leafValues>
        -1.0863437652587891e+00 1.1834358796477318e-02</leafValues></_>
    <_>
      <internalNodes>
        0 -1 470 1299074048 246837046 -50413584 721092478 72619332
        7341925 1156863028 5260628</internalNodes>
      <leafValues>
        -1.3913043737411499e+00 1.0663140565156937e-02</leafValues></_>
    <_>
      <internalNodes>
        0 -1 0 208931840 170278703 788410112 7487242 112791057 88047487
        83252564 3151732</internalNodes>
      <leafValues>
        -1.1824386119842529e+00 1.1010158807039261e-02</leafValues></_></weakClassifiers></stage7>
</opencv_storage>
