<?xml version="1.0"?>
<opencv_storage>
<stage1>
  <maxWeakCount>31</maxWeakCount>
  <stageThreshold>-1.7898505926132202e+00</stageThreshold>
  <weakClassifiers>
    <_>
      <internalNodes>
        0 -1 983 -129 -1 -1 -1 -137 -1 -9 -1</internalNodes>
      <leafValues>
        -1.0571035146713257e+00 6.2849926948547363e-01</leafValues></_>
    <_>
      <internalNodes>
        0 -1 3854 -16777558 -16842754 1073688074 -1073741825 -1 -1 -1 -1</internalNodes>
      <leafValues>
        -8.4090656042098999e-01 5.4710209369659424e-01</leafValues></_>
    <_>
      <internalNodes>
        0 -1 8094 -268435457 -285212673 -1 -16777217 -1 -1 -1 -1</internalNodes>
      <leafValues>
        -3.7929555773735046e-01 8.2247060537338257e-01</leafValues></_>
    <_>
      <internalNodes>
        0 -1 2708 -17 -1 -2 -1 -1 -1 -1 -1</internalNodes>
      <leafValues>
        -3.3254414796829224e-01 6.7408686876296997e-01</leafValues></_>
    <_>
      <internalNodes>
        0 -1 697 -1 -1 -1 -16842753 -1 -1 -11 -16842756</internalNodes>
      <leafValues>
        -2.9795449972152710e-01 5.2089172601699829e-01</leafValues></_>
    <_>
      <internalNodes>
        0 -1 6555 -268501042 1190068221 -8 -151781377 1610612558
        1163329532 1442807679 1433862135</internalNodes>
      <leafValues>
        -4.9117296934127808e-01 2.4741517007350922e-01</leafValues></_>
    <_>
      <internalNodes>
        0 -1 6398 -17 -1 -2 -1 -1 2147483647 -1 -1</internalNodes>
      <leafValues>
        -1.5995576977729797e-01 6.7522728443145752e-01</leafValues></_>
    <_>
      <internalNodes>
        0 -1 480 -18420114 241321710 -151060486 914030335 1148539988
        72709702 -17563676 74924919</internalNodes>
      <leafValues>
        -9.9453747272491455e-01 1.3656635582447052e-01</leafValues></_>
    <_>
      <internalNodes>
        0 -1 216 2125889092 573566574 854748810 594541551 1439126550
        1145330892 1438121218 1194328015</internalNodes>
      <leafValues>
        -9.0754514932632446e-01 1.0830757766962051e-01</leafValues></_>
    <_>
      <internalNodes>
        0 -1 8424 -268435457 -268435457 -1 -16777217 -129 -1 -1 -1</internalNodes>
      <leafValues>
        -1.6514341533184052e-01 5.1249319314956665e-01</leafValues></_>
    <_>
      <internalNodes>
        0 -1 8373 -1342226561 -1 -1 -1 -129 -1 -1 -1</internalNodes>
      <leafValues>
        -1.8604432046413422e-01 5.3507781028747559e-01</leafValues></_>
    <_>
      <internalNodes>
        0 -1 5900 -1095173112 799997602 -197424 770768816 2147381062
        -268443649 2130607670 74743221</internalNodes>
      <leafValues>
        -6.8066155910491943e-01 1.5093919634819031e-01</leafValues></_>
    <_>
      <internalNodes>
        0 -1 5145 -65560 -2 -6 -1073741825 -9 -1 -10 83853303</internalNodes>
      <leafValues>
        -3.0798956751823425e-01 2.7361077070236206e-01</leafValues></_>
    <_>
      <internalNodes>
        0 -1 4876 -18190720 716111790 -16843038 587137007 2147439692
        2147483647 1073706836 100622079</internalNodes>
      <leafValues>
        -6.5862196683883667e-01 1.3806046545505524e-01</leafValues></_>
    <_>
      <internalNodes>
        0 -1 5960 -268440064 1877999615 -416 -151060485 2013265734
        1207959421 2013165172 620756987</internalNodes>
      <leafValues>
        -1.1533293724060059e+00 9.5293395221233368e-02</leafValues></_>
    <_>
      <internalNodes>
        0 -1 3286 -1431647582 573241898 -83955974 2813678 359104358
        1265565567 -554731548 100620286</internalNodes>
      <leafValues>
        -9.7698092460632324e-01 9.4255998730659485e-02</leafValues></_>
    <_>
      <internalNodes>
        0 -1 3859 -1358982454 113966798 -487592278 -1561329665
        2013218381 1600061439 1476362222 1726971903</internalNodes>
      <leafValues>
        -5.3367602825164795e-01 1.3202093541622162e-01</leafValues></_>
    <_>
      <internalNodes>
        0 -1 664 -1 -1 -1 -16777217 -129 -1 -1 -1</internalNodes>
      <leafValues>
        -9.5002062618732452e-02 7.9556894302368164e-01</leafValues></_>
    <_>
      <internalNodes>
        0 -1 8463 -1 -1 -1 -16777217 -1 -1 -9 -3</internalNodes>
      <leafValues>
        -1.3410237431526184e-01 6.0176295042037964e-01</leafValues></_>
    <_>
      <internalNodes>
        0 -1 20 645674498 640368482 -565772 540966890 595015492
        930576247 343168465 825243061</internalNodes>
      <leafValues>
        -1.2000890970230103e+00 8.0017223954200745e-02</leafValues></_>
    <_>
      <internalNodes>
        0 -1 876 -18 -268435457 -2 -1 -129 2147483647 -1 -134217729</internalNodes>
      <leafValues>
        -2.5856614112854004e-01 2.4547992646694183e-01</leafValues></_>
    <_>
      <internalNodes>
        0 -1 5617 -18 -1342177281 -16777246 -16842753 -129 2147483647 -9
        1962934269</internalNodes>
      <leafValues>
        -3.4397259354591370e-01 1.8935419619083405e-01</leafValues></_>
    <_>
      <internalNodes>
        0 -1 4988 1795095552 11075518 83755010 11663610 1757083136
        106102536 100611383 52671475</internalNodes>
      <leafValues>
        -9.9352735280990601e-01 7.4680529534816742e-02</leafValues></_>
    <_>
      <internalNodes>
        0 -1 6084 1873705984 -1212219478 -28 -302055426 2147450692 -1
        -16777228 637501439</internalNodes>
      <leafValues>
        -4.0170425176620483e-01 1.5475806593894958e-01</leafValues></_>
    <_>
      <internalNodes>
        0 -1 703 -285282618 742289262 -16875796 7765758 1148667460
        1144418133 1979143508 1081112420</internalNodes>
      <leafValues>
        -1.5991617441177368e+00 6.5838485956192017e-02</leafValues></_>
    <_>
      <internalNodes>
        0 -1 65 -1342210050 -268435457 -1 -1 -1 -1 -1 -1</internalNodes>
      <leafValues>
        -1.2834733724594116e-01 4.6741110086441040e-01</leafValues></_>
    <_>
      <internalNodes>
        0 -1 3099 -65554 2147483647 -1 2147483647 -9 2147483647 -1
        2130673663</internalNodes>
      <leafValues>
        -1.5160223841667175e-01 3.6807742714881897e-01</leafValues></_>
    <_>
      <internalNodes>
        0 -1 7619 -268435602 49217518 -30 587137022 -32953 1148682079
        -134252700 1416953333</internalNodes>
      <leafValues>
        -1.1431043148040771e+00 6.6866412758827209e-02</leafValues></_>
    <_>
      <internalNodes>
        0 -1 31 1689545796 540241471 -66322 930119611 477394244
        1161263103 486401268 288454135</internalNodes>
      <leafValues>
        -7.9478847980499268e-01 7.9161927103996277e-02</leafValues></_>
    <_>
      <internalNodes>
        0 -1 2309 -319114752 1612771238 44237322 35830314 1958737488
        618135438 1451220443 1433927679</internalNodes>
      <leafValues>
        -1.1825084686279297e+00 6.2887646257877350e-02</leafValues></_>
    <_>
      <internalNodes>
        0 -1 5850 -269553880 649002990 -16777504 587104254 1744797508
        922222463 1996488548 1081606006</internalNodes>
      <leafValues>
        -9.3323206901550293e-01 7.1981705725193024e-02</leafValues></_></weakClassifiers></stage1>
</opencv_storage>
