<?xml version="1.0"?>
<opencv_storage>
<stage10>
  <maxWeakCount>100</maxWeakCount>
  <stageThreshold>-1.9989922046661377e+00</stageThreshold>
  <weakClassifiers>
    <_>
      <internalNodes>
        0 -1 6094 -33 -1 -50 -1 -17 -1 -1 -1</internalNodes>
      <leafValues>
        -7.4478423595428467e-01 1.3264326751232147e-01</leafValues></_>
    <_>
      <internalNodes>
        0 -1 5363 -1 -1073741825 -1 -134217729 -32769 -1 -1 -134217729</internalNodes>
      <leafValues>
        -1.4891630411148071e-01 5.2677440643310547e-01</leafValues></_>
    <_>
      <internalNodes>
        0 -1 5387 -1 -536870913 -33 -738197505 2147483583 528482303
        2113929215 939524095</internalNodes>
      <leafValues>
        -2.4772517383098602e-01 2.7802526950836182e-01</leafValues></_>
    <_>
      <internalNodes>
        0 -1 0 -1342226641 -268435457 -1 -1 -129 -1 -1 -1</internalNodes>
      <leafValues>
        -2.6344081759452820e-01 2.0272582769393921e-01</leafValues></_>
    <_>
      <internalNodes>
        0 -1 7383 -1 -1 -1 -1 -1 2147483647 -1 -1</internalNodes>
      <leafValues>
        -7.7342242002487183e-02 5.1365184783935547e-01</leafValues></_>
    <_>
      <internalNodes>
        0 -1 5726 -824 -1 -4146 -1 -177 -1 -92 -1</internalNodes>
      <leafValues>
        -2.5798600912094116e-01 1.1392131447792053e-01</leafValues></_>
    <_>
      <internalNodes>
        0 -1 556 -1 -1 -1 -1 -1 2147483647 -1 -134217729</internalNodes>
      <leafValues>
        -7.8382194042205811e-02 3.1493529677391052e-01</leafValues></_>
    <_>
      <internalNodes>
        0 -1 5324 -1078034504 -1078001675 -1 -1077968907 -65539 -1 -1
        754745343</internalNodes>
      <leafValues>
        -1.9796733558177948e-01 1.3636606931686401e-01</leafValues></_>
    <_>
      <internalNodes>
        0 -1 5988 -1 -1 -1 -1 -1 -1 -1 -134217729</internalNodes>
      <leafValues>
        -6.1508249491453171e-02 6.0844206809997559e-01</leafValues></_>
    <_>
      <internalNodes>
        0 -1 8463 -1 -1 -1 -16842753 -1 -1 -9 -1</internalNodes>
      <leafValues>
        -1.1017457395792007e-01 2.1675001084804535e-01</leafValues></_>
    <_>
      <internalNodes>
        0 -1 4329 -1094778882 -65537 -1 -65537 -1 -1 -1 805273599</internalNodes>
      <leafValues>
        -1.3814269006252289e-01 1.4780884981155396e-01</leafValues></_>
    <_>
      <internalNodes>
        0 -1 4805 -2 -18 -274 -201326593 -513 -1 -1 -1342177281</internalNodes>
      <leafValues>
        -1.2186904251575470e-01 1.6934263706207275e-01</leafValues></_>
    <_>
      <internalNodes>
        0 -1 4805 -2 -1 -1 -1 -1 -1 -1 -1</internalNodes>
      <leafValues>
        6.5460637211799622e-02 -3.6764815449714661e-01</leafValues></_>
    <_>
      <internalNodes>
        0 -1 8012 -268435473 -268435457 -1 -1 -1 -1 -1 -1</internalNodes>
      <leafValues>
        -9.5538571476936340e-02 1.9884921610355377e-01</leafValues></_>
    <_>
      <internalNodes>
        0 -1 0 -32897 -268435457 -1 -1 -129 -1 -1 2147483647</internalNodes>
      <leafValues>
        1.0800711810588837e-01 -1.4866092801094055e-01</leafValues></_>
    <_>
      <internalNodes>
        0 -1 6804 -1 -268435457 -1 -1 -1 -1 -1 -1</internalNodes>
      <leafValues>
        -3.7361178547143936e-02 4.8803952336311340e-01</leafValues></_>
    <_>
      <internalNodes>
        0 -1 7324 -1 -1 -1 -16777217 -129 -1 -1 -1</internalNodes>
      <leafValues>
        -6.4117677509784698e-02 2.2362519800662994e-01</leafValues></_>
    <_>
      <internalNodes>
        0 -1 7296 -1 -1 -1 -1 -32769 -1 -1 -16777219</internalNodes>
      <leafValues>
        -5.1570326089859009e-02 3.4290596842765808e-01</leafValues></_>
    <_>
      <internalNodes>
        0 -1 2839 -1 -1 -2 -1 -1 -1 -1 -1</internalNodes>
      <leafValues>
        -6.1723787337541580e-02 2.4571231007575989e-01</leafValues></_>
    <_>
      <internalNodes>
        0 -1 7210 -1 -1 -1 -1 -129 -1 -137 -3</internalNodes>
      <leafValues>
        6.6543810069561005e-02 -1.9679169356822968e-01</leafValues></_>
    <_>
      <internalNodes>
        0 -1 5716 -286368376 -1364262982 -84 -1532559382 -32946 -1
        -1342210592 83853311</internalNodes>
      <leafValues>
        -2.8002470731735229e-01 4.6824783086776733e-02</leafValues></_>
    <_>
      <internalNodes>
        0 -1 4478 -285278210 -268435457 -1 -285212673 -1 -1 -1
        2147483647</internalNodes>
      <leafValues>
        1.0530073195695877e-01 -1.3639268279075623e-01</leafValues></_>
    <_>
      <internalNodes>
        0 -1 5363 -18 -1358954497 -2 -285278209 -32769 -1 -1 939524095</internalNodes>
      <leafValues>
        1.3858038187026978e-01 -1.0242448002099991e-01</leafValues></_>
    <_>
      <internalNodes>
        0 -1 5265 -1057656 -5243230 1945100812 -470876161 -8882 -1
        -32928 -1342218241</internalNodes>
      <leafValues>
        -2.5136879086494446e-01 5.7998146861791611e-02</leafValues></_>
    <_>
      <internalNodes>
        0 -1 333 -17019308 -16842756 -65540 -65540 -65708 -1 -98316
        1073496060</internalNodes>
      <leafValues>
        -3.7308013439178467e-01 3.9881523698568344e-02</leafValues></_>
    <_>
      <internalNodes>
        0 -1 7366 -32769 -1 -1 -1 -1 -1 -1 -1</internalNodes>
      <leafValues>
        4.2136911302804947e-02 -3.3378434181213379e-01</leafValues></_>
    <_>
      <internalNodes>
        0 -1 1374 -1 -1 -2 -1 -1 -1 -9 -134217729</internalNodes>
      <leafValues>
        -7.1576960384845734e-02 1.7197743058204651e-01</leafValues></_>
    <_>
      <internalNodes>
        0 -1 5844 -1 -1342177281 -1 -285212673 -1 -1 -1 2147483647</internalNodes>
      <leafValues>
        8.7998263537883759e-02 -1.3930508494377136e-01</leafValues></_>
    <_>
      <internalNodes>
        0 -1 43 -1 2147483647 -1 -1 -1 2147483647 -1 2013265919</internalNodes>
      <leafValues>
        -9.2053845524787903e-02 1.2395228445529938e-01</leafValues></_>
    <_>
      <internalNodes>
        0 -1 1582 1793392128 -429719774 115756546 1176698482 -587202699
        1415053311 1426062975 1450704895</internalNodes>
      <leafValues>
        -3.6470878124237061e-01 3.1525276601314545e-02</leafValues></_>
    <_>
      <internalNodes>
        0 -1 7140 -1 -1 -1 -1 -129 -1 -9 -1</internalNodes>
      <leafValues>
        5.1911827176809311e-02 -2.0343059301376343e-01</leafValues></_>
    <_>
      <internalNodes>
        0 -1 4870 -16842754 -1358954497 -1 -285212673 -1 -1 -1
        1056964607</internalNodes>
      <leafValues>
        9.6200309693813324e-02 -1.1117080599069595e-01</leafValues></_>
    <_>
      <internalNodes>
        0 -1 3308 15630848 11205166 10879490 36372142 1441744644
        216989695 1121868288 1325400047</internalNodes>
      <leafValues>
        -1.1556017398834229e+00 1.1880555190145969e-02</leafValues></_>
    <_>
      <internalNodes>
        0 -1 720 -1 -1 -2 -16842753 -1 -1 -12 2130640892</internalNodes>
      <leafValues>
        -1.3246056437492371e-01 7.3503851890563965e-02</leafValues></_>
    <_>
      <internalNodes>
        0 -1 3 -32769 -1 -1 -1 -1 -1 -1 -1</internalNodes>
      <leafValues>
        4.8258472234010696e-02 -2.1639889478683472e-01</leafValues></_>
    <_>
      <internalNodes>
        0 -1 4994 203424768 673187956 -1359061404 35659040 117341564
        243103607 83641636 3146752</internalNodes>
      <leafValues>
        -1.2602982521057129e+00 9.4861751422286034e-03</leafValues></_>
    <_>
      <internalNodes>
        0 -1 7358 -17 -1 -2 -16777217 -1 -1 -9 -134217729</internalNodes>
      <leafValues>
        -7.9617775976657867e-02 1.2032362818717957e-01</leafValues></_>
    <_>
      <internalNodes>
        0 -1 6821 247070720 318406644 2096841792 934958836 1145390080
        928470909 339035136 68441460</internalNodes>
      <leafValues>
        -1.1001765727996826e+00 1.1285142041742802e-02</leafValues></_>
    <_>
      <internalNodes>
        0 -1 1575 6422528 4326950 539099648 537005934 1413760068
        1431723028 74925312 357859148</internalNodes>
      <leafValues>
        -1.0785564184188843e+00 1.1023067869246006e-02</leafValues></_>
    <_>
      <internalNodes>
        0 -1 5417 -50 -822083585 -2086 1392508927 2147483471 1468006399
        2013263735 2013265919</internalNodes>
      <leafValues>
        1.5352481603622437e-01 -6.2368109822273254e-02</leafValues></_>
    <_>
      <internalNodes>
        0 -1 5843 214732288 65408 12715776 5438994 1430009088 67395348
        72749056 5580338</internalNodes>
      <leafValues>
        -1.2276395559310913e+00 1.1371907778084278e-02</leafValues></_>
    <_>
      <internalNodes>
        0 -1 6304 203957760 740327328 -1090871648 -1393410203 1047821608
        1040056317 788299616 69209204</internalNodes>
      <leafValues>
        -7.1469867229461670e-01 1.4260139316320419e-02</leafValues></_>
    <_>
      <internalNodes>
        0 -1 2206 -1 -1 -2 -1 -1 -1 -1 -1</internalNodes>
      <leafValues>
        -3.9576802402734756e-02 2.3392374813556671e-01</leafValues></_>
    <_>
      <internalNodes>
        0 -1 924 1835937344 2106470 551616430 539164647 1279554916
        67130436 83214164 11763701</internalNodes>
      <leafValues>
        -8.8717842102050781e-01 1.3600262813270092e-02</leafValues></_>
    <_>
      <internalNodes>
        0 -1 6440 -1 -1 -1 -16777217 -1 -1 -1 -1</internalNodes>
      <leafValues>
        -2.9143314808607101e-02 3.1280514597892761e-01</leafValues></_>
    <_>
      <internalNodes>
        0 -1 2226 -16777234 -16777217 -16777298 -16777217 -1 -1 -1 -1</internalNodes>
      <leafValues>
        9.5089904963970184e-02 -1.0546194761991501e-01</leafValues></_>
    <_>
      <internalNodes>
        0 -1 5190 -17 -1 -2 -16777217 -1 2147483647 -1 -134217729</internalNodes>
      <leafValues>
        -9.3840323388576508e-02 1.0220702737569809e-01</leafValues></_>
    <_>
      <internalNodes>
        0 -1 1674 805273382 788529151 -1 -16777217 2013230967 2004877183
        2013230965 1970765687</internalNodes>
      <leafValues>
        2.9526665806770325e-01 -3.3903967589139938e-02</leafValues></_>
    <_>
      <internalNodes>
        0 -1 374 41288192 540344098 238157826 174309170 1146373140
        341169751 74925124 72875639</internalNodes>
      <leafValues>
        -1.2050499916076660e+00 1.1174813844263554e-02</leafValues></_>
    <_>
      <internalNodes>
        0 -1 5441 -2131063808 -938674296 9306368 11599728 1157502208
        71221006 383713536 342179830</internalNodes>
      <leafValues>
        -1.0888938903808594e+00 1.0895971208810806e-02</leafValues></_>
    <_>
      <internalNodes>
        0 -1 15 -132 -1 -1 -1 -9 -1 -3 -1</internalNodes>
      <leafValues>
        -8.3945356309413910e-02 1.1376939713954926e-01</leafValues></_>
    <_>
      <internalNodes>
        0 -1 3777 -1073741825 -65537 -1 -1 -1 -1 -1 2147450879</internalNodes>
      <leafValues>
        -5.9846483170986176e-02 1.5209275484085083e-01</leafValues></_>
    <_>
      <internalNodes>
        0 -1 4959 -1 -268435457 -1 -285212673 -1 -1 -1 2147483647</internalNodes>
      <leafValues>
        8.2273431122303009e-02 -1.1727371811866760e-01</leafValues></_>
    <_>
      <internalNodes>
        0 -1 3236 -1 -268435457 -2 -16777217 -1 2147483647 -1 -1</internalNodes>
      <leafValues>
        -9.3285955488681793e-02 1.0076881945133209e-01</leafValues></_>
    <_>
      <internalNodes>
        0 -1 6947 225201928 4583168 2126479104 1626668919 73336324
        268032 91575552 1079342356</internalNodes>
      <leafValues>
        -1.9792283773422241e+00 8.7575390934944153e-03</leafValues></_>
    <_>
      <internalNodes>
        0 -1 7745 -1 788529151 -1 -419430401 2147483511 1744830463 -137
        2013265919</internalNodes>
      <leafValues>
        2.2887052595615387e-01 -4.1072126477956772e-02</leafValues></_>
    <_>
      <internalNodes>
        0 -1 503 -1434563516 615796082 -50893692 783990782 116803072
        74776437 7606292 1328</internalNodes>
      <leafValues>
        -1.1144274473190308e+00 1.1141096241772175e-02</leafValues></_>
    <_>
      <internalNodes>
        0 -1 4297 -32770 805306367 -1 -65538 -1 -1 -9 1996423167</internalNodes>
      <leafValues>
        -7.4889898300170898e-02 1.1782818287611008e-01</leafValues></_>
    <_>
      <internalNodes>
        0 -1 2592 -2 -1 -1 -1 -1 -1 -1 -1</internalNodes>
      <leafValues>
        -2.0463038235902786e-02 4.3205037713050842e-01</leafValues></_>
    <_>
      <internalNodes>
        0 -1 5526 -288360960 589708 1895764992 7405546 1140805124
        67919684 1358905604 6617070</internalNodes>
      <leafValues>
        -1.0450258255004883e+00 1.0413457639515400e-02</leafValues></_>
    <_>
      <internalNodes>
        0 -1 6193 782765056 -1364718592 -285282784 -1396958176
        1862037324 788299775 -1497493980 70263920</internalNodes>
      <leafValues>
        -1.7047305107116699e+00 8.8800648227334023e-03</leafValues></_>
    <_>
      <internalNodes>
        0 -1 497 -1 -1 -1 -1 -129 -1 -9 -1</internalNodes>
      <leafValues>
        5.4738935083150864e-02 -1.6043137013912201e-01</leafValues></_>
    <_>
      <internalNodes>
        0 -1 5444 -1 -1 -1 -1 -1 2147483647 -1 -1</internalNodes>
      <leafValues>
        -4.2390879243612289e-02 2.1104933321475983e-01</leafValues></_>
    <_>
      <internalNodes>
        0 -1 7209 -32769 -1 -1 -1 -129 -1 -9 -1</internalNodes>
      <leafValues>
        5.6962147355079651e-02 -1.5981805324554443e-01</leafValues></_>
    <_>
      <internalNodes>
        0 -1 2666 -17 -268435457 -2 -1 -1 2147483647 -1 -134217729</internalNodes>
      <leafValues>
        -9.6898712217807770e-02 8.8800705969333649e-02</leafValues></_>
    <_>
      <internalNodes>
        0 -1 80 23273504 2108266 855618544 2244562 275199269 913794934
        74920020 5255461</internalNodes>
      <leafValues>
        -1.6257274150848389e+00 8.0448742955923080e-03</leafValues></_>
    <_>
      <internalNodes>
        0 -1 4092 204079104 637537578 2147355938 10624870 125727317
        70713207 1426019701 3175796</internalNodes>
      <leafValues>
        -7.7479511499404907e-01 1.2788680382072926e-02</leafValues></_>
    <_>
      <internalNodes>
        0 -1 7827 -1073774593 -1 -1 -1 -1 -1 -1 2147483647</internalNodes>
      <leafValues>
        4.8304710537195206e-02 -1.7180895805358887e-01</leafValues></_>
    <_>
      <internalNodes>
        0 -1 5649 -65556 -1073741825 -2 -1 -1 -1 -1 2130706431</internalNodes>
      <leafValues>
        -6.5530769526958466e-02 1.3272564113140106e-01</leafValues></_>
    <_>
      <internalNodes>
        0 -1 781 575610880 286720 603857408 36073058 72246596 72643941
        1417049922 1275719</internalNodes>
      <leafValues>
        -1.2328702211380005e+00 1.0227756574749947e-02</leafValues></_>
    <_>
      <internalNodes>
        0 -1 475 -1 -1 -1 -1 -1 2147483647 -1 -1</internalNodes>
      <leafValues>
        -3.0763303861021996e-02 2.7911442518234253e-01</leafValues></_>
    <_>
      <internalNodes>
        0 -1 5616 145228800 614874912 -98576 552091508 645137492
        108912503 2004175957 1040</internalNodes>
      <leafValues>
        -7.9672867059707642e-01 1.2040784582495689e-02</leafValues></_>
    <_>
      <internalNodes>
        0 -1 6427 -18 -285212673 -22 -16777217 -137 2013265919 -12
        1979187199</internalNodes>
      <leafValues>
        1.4854170382022858e-01 -5.6483071297407150e-02</leafValues></_>
    <_>
      <internalNodes>
        0 -1 6660 795545344 251658191 939518464 585297911 402605824
        89554758 880239680 1098250103</internalNodes>
      <leafValues>
        -9.9125093221664429e-01 1.1331194080412388e-02</leafValues></_>
    <_>
      <internalNodes>
        0 -1 4329 783974394 805240831 -1 -1359020033 -1 -1 -1 788430847</internalNodes>
      <leafValues>
        1.6485784947872162e-01 -4.8738747835159302e-02</leafValues></_>
    <_>
      <internalNodes>
        0 -1 1115 -1 -1 -1 -1 -1 2147483647 -1 -1</internalNodes>
      <leafValues>
        -7.2620712220668793e-02 1.2934151291847229e-01</leafValues></_>
    <_>
      <internalNodes>
        0 -1 1088 -1 -285212673 -1 -16777217 -1 2013265919 -1 2013265919</internalNodes>
      <leafValues>
        1.0632560402154922e-01 -9.4292178750038147e-02</leafValues></_>
    <_>
      <internalNodes>
        0 -1 2783 -16777474 720371710 -1 -1427111937 -1 2147483647 -1
        1879048191</internalNodes>
      <leafValues>
        -1.5446060895919800e-01 6.4364083111286163e-02</leafValues></_>
    <_>
      <internalNodes>
        0 -1 2454 -18 -1 -2 -16777217 -1 -1 -1 -1</internalNodes>
      <leafValues>
        8.6449347436428070e-02 -9.8234280943870544e-02</leafValues></_>
    <_>
      <internalNodes>
        0 -1 2328 212208640 2099750 1073626616 538984310 68437076
        7624020 1207399796 4480374</internalNodes>
      <leafValues>
        -1.0811045169830322e+00 1.0742366313934326e-02</leafValues></_>
    <_>
      <internalNodes>
        0 -1 4650 -268439794 1861156846 -83955168 -486604818 2147442502
        1155530751 1979676484 1694498815</internalNodes>
      <leafValues>
        -7.1260619163513184e-01 1.3708832673728466e-02</leafValues></_>
    <_>
      <internalNodes>
        0 -1 4158 175115776 706919072 585245216 540029472 2113871620
        339697527 552887844 7700342</internalNodes>
      <leafValues>
        -1.4481141567230225e+00 9.2526711523532867e-03</leafValues></_>
    <_>
      <internalNodes>
        0 -1 1508 -268439553 788529151 -1 1660944383 2147483647
        2013265919 -1 2013265919</internalNodes>
      <leafValues>
        1.7492569983005524e-01 -4.6995811164379120e-02</leafValues></_>
    <_>
      <internalNodes>
        0 -1 701 721186310 548306730 -286331038 678493951 79513412
        70278949 1148470612 71333748</internalNodes>
      <leafValues>
        -9.5833617448806763e-01 1.0896933265030384e-02</leafValues></_>
    <_>
      <internalNodes>
        0 -1 2350 553313792 2160430 12451842 35842606 1425012292
        74446847 109008665 368050047</internalNodes>
      <leafValues>
        -1.3210328817367554e+00 9.0229026973247528e-03</leafValues></_>
    <_>
      <internalNodes>
        0 -1 5832 -18 -1 -2 -1 -129 -1 -9 -1</internalNodes>
      <leafValues>
        -1.0749651491641998e-01 7.1504071354866028e-02</leafValues></_>
    <_>
      <internalNodes>
        0 -1 16 -17 -1 -1 -1 -129 2147483647 -1 2147483647</internalNodes>
      <leafValues>
        -7.4706703424453735e-02 1.0644395649433136e-01</leafValues></_>
    <_>
      <internalNodes>
        0 -1 4354 1491763200 -1431650648 715786248 170556138 1593673732
        2138046303 2058046528 196083679</internalNodes>
      <leafValues>
        -8.3241134881973267e-01 1.0795546695590019e-02</leafValues></_>
    <_>
      <internalNodes>
        0 -1 5921 682101760 -1935627232 720252416 616827956 744898048
        2424828 682361376 5508180</internalNodes>
      <leafValues>
        -1.6817368268966675e+00 8.0820955336093903e-03</leafValues></_>
    <_>
      <internalNodes>
        0 -1 1282 -4097 -268435457 -1 -16777217 2147450743 2013265919
        -137 2013265911</internalNodes>
      <leafValues>
        1.3260090351104736e-01 -5.9897094964981079e-02</leafValues></_>
    <_>
      <internalNodes>
        0 -1 8320 -1 -16777217 -1 -1 -1 -1 -1 -65537</internalNodes>
      <leafValues>
        -3.6532655358314514e-02 2.1698939800262451e-01</leafValues></_>
    <_>
      <internalNodes>
        0 -1 2604 753822720 65352 -487821792 539164450 -590012
        1145372512 -134318332 71630657</internalNodes>
      <leafValues>
        -1.0398098230361938e+00 8.9462492614984512e-03</leafValues></_>
    <_>
      <internalNodes>
        0 -1 6966 -98708 -1 -2 -285212675 -32907 -1 -32907 2130607989</internalNodes>
      <leafValues>
        1.1873683333396912e-01 -6.1858620494604111e-02</leafValues></_>
    <_>
      <internalNodes>
        0 -1 4940 -65538 -1 -1 -1 -1 -1 -1 2130706431</internalNodes>
      <leafValues>
        -4.9277912825345993e-02 1.5094983577728271e-01</leafValues></_>
    <_>
      <internalNodes>
        0 -1 4940 -1095041042 788463598 -1 788414459 -65537 -1 -16842753
        1056866303</internalNodes>
      <leafValues>
        1.6614902019500732e-01 -5.3030136972665787e-02</leafValues></_>
    <_>
      <internalNodes>
        0 -1 3 -1342292186 -268435457 -1 -1 -137 -1 -1 -1073774593</internalNodes>
      <leafValues>
        -1.5224398672580719e-01 5.0633922219276428e-02</leafValues></_>
    <_>
      <internalNodes>
        0 -1 2198 -65794 805236735 -1 1073676287 2147483647 2146959359
        2147483647 938999807</internalNodes>
      <leafValues>
        -9.6649624407291412e-02 8.3664976060390472e-02</leafValues></_>
    <_>
      <internalNodes>
        0 -1 4586 784236410 788463615 -1 -1359020033 2147450751 -1 -1
        2147385335</internalNodes>
      <leafValues>
        1.3873210549354553e-01 -5.8892447501420975e-02</leafValues></_>
    <_>
      <internalNodes>
        0 -1 8434 -1 -268435457 -1 -285212673 -1 -1 -1 -1</internalNodes>
      <leafValues>
        8.5597395896911621e-02 -9.5900237560272217e-02</leafValues></_>
    <_>
      <internalNodes>
        0 -1 8402 -1342230546 -285212673 -2 -16777217 -129 -1 -1 -1</internalNodes>
      <leafValues>
        -1.3765433430671692e-01 6.8692758679389954e-02</leafValues></_></weakClassifiers></stage10>
</opencv_storage>
