<?xml version="1.0"?>
<opencv_storage>
<stage12>
  <maxWeakCount>100</maxWeakCount>
  <stageThreshold>-2.0004489421844482e+00</stageThreshold>
  <weakClassifiers>
    <_>
      <internalNodes>
        0 -1 4872 -4259841 -1 -1 2147450879 -196609 -1 -1 2147483647</internalNodes>
      <leafValues>
        -8.2459175586700439e-01 -8.4864012897014618e-02</leafValues></_>
    <_>
      <internalNodes>
        0 -1 796 -129 -1 -1 -1 -137 -1 -9 -1</internalNodes>
      <leafValues>
        -2.2564092278480530e-01 3.3423358201980591e-01</leafValues></_>
    <_>
      <internalNodes>
        0 -1 7723 -137 -1 -1 -1 -32897 -1 -1 -1</internalNodes>
      <leafValues>
        -1.2056733667850494e-01 3.8877370953559875e-01</leafValues></_>
    <_>
      <internalNodes>
        0 -1 6527 -1 1610612735 -1 -1 2147483647 1465909247 2147483519
        1434451967</internalNodes>
      <leafValues>
        -2.9946276545524597e-01 1.3221891224384308e-01</leafValues></_>
    <_>
      <internalNodes>
        0 -1 4841 -2 -1363214337 -18 -486539265 -32769 -1 -1 -1342210049</internalNodes>
      <leafValues>
        -1.8856477737426758e-01 1.6701538860797882e-01</leafValues></_>
    <_>
      <internalNodes>
        0 -1 71 -209 -1 -1 -1 -129 -1 -1 -1</internalNodes>
      <leafValues>
        -1.4604894816875458e-01 1.6018168628215790e-01</leafValues></_>
    <_>
      <internalNodes>
        0 -1 6095 -2 -1 -34 -1 -1 -1 -2 -1</internalNodes>
      <leafValues>
        -6.7751593887805939e-02 3.1320005655288696e-01</leafValues></_>
    <_>
      <internalNodes>
        0 -1 8193 -268435457 -1 -1 -1 -1 -1 -1 -1</internalNodes>
      <leafValues>
        -6.5857023000717163e-02 3.7098750472068787e-01</leafValues></_>
    <_>
      <internalNodes>
        0 -1 5972 -1 -1 -1 -1 -1 -1 -1 -134217729</internalNodes>
      <leafValues>
        -5.0872985273599625e-02 5.6538897752761841e-01</leafValues></_>
    <_>
      <internalNodes>
        0 -1 796 -32905 -1 -1 -1 -137 -1 -9 -1</internalNodes>
      <leafValues>
        1.7088131606578827e-01 -1.1265004426240921e-01</leafValues></_>
    <_>
      <internalNodes>
        0 -1 5289 -1073807368 -3 -1 -1073741827 -3 -1 -1 754941951</internalNodes>
      <leafValues>
        -1.5547153353691101e-01 1.3207608461380005e-01</leafValues></_>
    <_>
      <internalNodes>
        0 -1 4322 -17 -268435457 -2 -1 -1 2147483647 -2 -134217729</internalNodes>
      <leafValues>
        -1.4660528302192688e-01 1.1211775988340378e-01</leafValues></_>
    <_>
      <internalNodes>
        0 -1 8380 -1342177297 -268435457 -1 -1 -129 -1 -1 -1</internalNodes>
      <leafValues>
        -1.0354956239461899e-01 1.4733412861824036e-01</leafValues></_>
    <_>
      <internalNodes>
        0 -1 4801 -2 -1 -2 -1 -1 -1 -1 -1</internalNodes>
      <leafValues>
        -6.5108634531497955e-02 2.1749150753021240e-01</leafValues></_>
    <_>
      <internalNodes>
        0 -1 6442 -1 -1073741825 -1 -268435457 -129 -1 -1 -285245441</internalNodes>
      <leafValues>
        -8.0963633954524994e-02 1.8882225453853607e-01</leafValues></_>
    <_>
      <internalNodes>
        0 -1 4872 -65537 -1 -1 -1 -1 -1 -1 2147483647</internalNodes>
      <leafValues>
        6.7366153001785278e-02 -2.8981184959411621e-01</leafValues></_>
    <_>
      <internalNodes>
        0 -1 658 -1 -1 -1 -1 -129 -1 -1 -134217729</internalNodes>
      <leafValues>
        -8.4206685423851013e-02 1.9354720413684845e-01</leafValues></_>
    <_>
      <internalNodes>
        0 -1 3156 -2 -1 -1 -1 -1 -1 -1 -1</internalNodes>
      <leafValues>
        -3.4688606858253479e-02 4.8488217592239380e-01</leafValues></_>
    <_>
      <internalNodes>
        0 -1 3890 -18 -268435457 -18 -285212673 -129 -1 -9 -1</internalNodes>
      <leafValues>
        2.5260332226753235e-01 -5.6395433843135834e-02</leafValues></_>
    <_>
      <internalNodes>
        0 -1 5447 -34 -536870913 -1 -738197505 -1 536870911 1979711455
        2013265919</internalNodes>
      <leafValues>
        -1.0884639620780945e-01 1.1601780354976654e-01</leafValues></_>
    <_>
      <internalNodes>
        0 -1 4369 1052704762 -1073807361 -1 -65538 -1 -1 -1 1073709055</internalNodes>
      <leafValues>
        -1.3194933533668518e-01 9.4663508236408234e-02</leafValues></_>
    <_>
      <internalNodes>
        0 -1 2816 -1 -268435457 -1 -1 -1 -1 -1 2147483647</internalNodes>
      <leafValues>
        5.6454956531524658e-02 -1.9901196658611298e-01</leafValues></_>
    <_>
      <internalNodes>
        0 -1 5722 -2 -1 -18 -1 -1 -1 -1 -1</internalNodes>
      <leafValues>
        -7.0761226117610931e-02 1.6165295243263245e-01</leafValues></_>
    <_>
      <internalNodes>
        0 -1 8380 -1342177281 -268435457 -1 -1 -1 -1 -1 2147483647</internalNodes>
      <leafValues>
        8.9493542909622192e-02 -1.2696300446987152e-01</leafValues></_>
    <_>
      <internalNodes>
        0 -1 1866 -18 -1 -18 -1 -1 2147483647 -1 -134217729</internalNodes>
      <leafValues>
        -1.3494147360324860e-01 7.5988300144672394e-02</leafValues></_>
    <_>
      <internalNodes>
        0 -1 6984 -1 -1 -1 -1 -129 -1 -137 -1</internalNodes>
      <leafValues>
        1.2350989878177643e-01 -1.0221228003501892e-01</leafValues></_>
    <_>
      <internalNodes>
        0 -1 8379 -1364656136 -285278209 -65537 -16842753 -65538 -1
        -65537 -1073807361</internalNodes>
      <leafValues>
        -2.7349680662155151e-01 4.2628195136785507e-02</leafValues></_>
    <_>
      <internalNodes>
        0 -1 4174 -1 -1 -1 -65537 -1 -1 -1 -1</internalNodes>
      <leafValues>
        -3.0523469671607018e-02 3.3946064114570618e-01</leafValues></_>
    <_>
      <internalNodes>
        0 -1 5289 -1073807362 -1 -1 -1 -1 -1 -1 1073741823</internalNodes>
      <leafValues>
        9.0590409934520721e-02 -1.5326337516307831e-01</leafValues></_>
    <_>
      <internalNodes>
        0 -1 6095 -2 -1 -2 -1 -129 -1 -129 -1</internalNodes>
      <leafValues>
        5.7611275464296341e-02 -1.8103328347206116e-01</leafValues></_>
    <_>
      <internalNodes>
        0 -1 8238 788430718 788463615 -1 721354751 -1 2147483647 -1
        2130640895</internalNodes>
      <leafValues>
        1.6997765004634857e-01 -6.0004472732543945e-02</leafValues></_>
    <_>
      <internalNodes>
        0 -1 8187 -1 -1 -2 -16777217 -1 -1 -1 -134217729</internalNodes>
      <leafValues>
        -7.8741885721683502e-02 1.5596616268157959e-01</leafValues></_>
    <_>
      <internalNodes>
        0 -1 465 -2 -1 -1 -1 -1 -1 -3 -1</internalNodes>
      <leafValues>
        -4.8922270536422729e-02 2.0025406777858734e-01</leafValues></_>
    <_>
      <internalNodes>
        0 -1 2059 -2 -1 -2 -1 -1 -1 -1 2147483647</internalNodes>
      <leafValues>
        -6.6877655684947968e-02 1.5065100789070129e-01</leafValues></_>
    <_>
      <internalNodes>
        0 -1 4934 238683440 805191540 -1 805208052 1073709055 2147483647
        1073643516 83132276</internalNodes>
      <leafValues>
        -3.0487051606178284e-01 3.5878147929906845e-02</leafValues></_>
    <_>
      <internalNodes>
        0 -1 4539 -1095045138 788463599 -32769 788430847 -1 -1 -1
        922648575</internalNodes>
      <leafValues>
        1.6656406223773956e-01 -6.8200603127479553e-02</leafValues></_>
    <_>
      <internalNodes>
        0 -1 5338 -308 -1 -18 2147483646 -17 -1 2147483647 -1</internalNodes>
      <leafValues>
        -1.1889059096574783e-01 1.0574180632829666e-01</leafValues></_>
    <_>
      <internalNodes>
        0 -1 4054 -1 -268435457 -1 -1 -1 -1 -1 -1</internalNodes>
      <leafValues>
        -5.1402188837528229e-02 2.1935629844665527e-01</leafValues></_>
    <_>
      <internalNodes>
        0 -1 6579 -1 -268435457 -1 -1 2147483487 1468006399 2147483647
        2013265919</internalNodes>
      <leafValues>
        1.3618274033069611e-01 -7.5122557580471039e-02</leafValues></_>
    <_>
      <internalNodes>
        0 -1 7376 -1 -1 -1 -1 -1 2147483647 -1 -1</internalNodes>
      <leafValues>
        -4.5109722763299942e-02 2.2747281193733215e-01</leafValues></_>
    <_>
      <internalNodes>
        0 -1 387 -146 1879048191 -2 -1 2013233015 2004877183 2013230967
        2012741623</internalNodes>
      <leafValues>
        2.7875003218650818e-01 -3.6714840680360794e-02</leafValues></_>
    <_>
      <internalNodes>
        0 -1 120 -1342226641 -268435457 -1 -1 -129 -1 -1 -1</internalNodes>
      <leafValues>
        -1.3384094834327698e-01 8.1429138779640198e-02</leafValues></_>
    <_>
      <internalNodes>
        0 -1 5265 -1049464 -5243158 -1051508 -202375169 -690 -1 -34848
        -1343234049</internalNodes>
      <leafValues>
        -1.8686953186988831e-01 5.1826383918523788e-02</leafValues></_>
    <_>
      <internalNodes>
        0 -1 4640 -18 -268435457 -1 -65537 -1 -1 -32769 2130706431</internalNodes>
      <leafValues>
        -7.5924433767795563e-02 1.2175861746072769e-01</leafValues></_>
    <_>
      <internalNodes>
        0 -1 4640 -1 -268435457 -1 -16842753 -1 2147483647 -1 2130640895</internalNodes>
      <leafValues>
        8.6104430258274078e-02 -1.1097898334264755e-01</leafValues></_>
    <_>
      <internalNodes>
        0 -1 5145 -65556 -1 -30 -1073741825 -1 2147483647 -1 654311423</internalNodes>
      <leafValues>
        -1.2653569877147675e-01 8.2450926303863525e-02</leafValues></_>
    <_>
      <internalNodes>
        0 -1 5491 -18 -1 -18 -1 -1 -1 -9 -134217729</internalNodes>
      <leafValues>
        1.0547491163015366e-01 -9.0701088309288025e-02</leafValues></_>
    <_>
      <internalNodes>
        0 -1 4112 -1398526464 45023018 12525602 2801578 218099206
        208666607 402593590 104005487</internalNodes>
      <leafValues>
        -6.9469940662384033e-01 1.4805832877755165e-02</leafValues></_>
    <_>
      <internalNodes>
        0 -1 8097 782389024 6356582 -84746504 3161958 1879015253 5635957
        264208252 3160048</internalNodes>
      <leafValues>
        -1.2843589782714844e+00 9.6002668142318726e-03</leafValues></_>
    <_>
      <internalNodes>
        0 -1 3833 2231328 169869344 788168174 1201698 1039406964
        997220349 938899327 3162992</internalNodes>
      <leafValues>
        -9.0186816453933716e-01 1.1728986166417599e-02</leafValues></_>
    <_>
      <internalNodes>
        0 -1 3992 1052688298 788414447 -65538 788430847 2147450879
        2147483647 -1 922681343</internalNodes>
      <leafValues>
        1.7492616176605225e-01 -5.2785310894250870e-02</leafValues></_>
    <_>
      <internalNodes>
        0 -1 4297 1879015422 1879048191 -1 -65538 -1 2147483647 -9
        1996423167</internalNodes>
      <leafValues>
        -8.8024549186229706e-02 1.1099335551261902e-01</leafValues></_>
    <_>
      <internalNodes>
        0 -1 586 787418626 784334834 -1359517054 585629694 74925124
        1147633525 1685550148 83722086</internalNodes>
      <leafValues>
        -7.9402261972427368e-01 1.3843310065567493e-02</leafValues></_>
    <_>
      <internalNodes>
        0 -1 2833 573704192 273922 715784706 36323322 905960980
        1413996382 -185106633 124776423</internalNodes>
      <leafValues>
        -7.2303670644760132e-01 1.3836836442351341e-02</leafValues></_>
    <_>
      <internalNodes>
        0 -1 105 74458148 478220 547758724 40894063 1698067796
        1141130460 1362326982 1158675919</internalNodes>
      <leafValues>
        -7.5657010078430176e-01 1.3652840629220009e-02</leafValues></_>
    <_>
      <internalNodes>
        0 -1 5756 -50 -1 -50 -1 -177 -1 -10 -1</internalNodes>
      <leafValues>
        -1.0238947719335556e-01 9.1837935149669647e-02</leafValues></_>
    <_>
      <internalNodes>
        0 -1 3819 -18 -16777217 -82 -1 -1 -1 -1 -1</internalNodes>
      <leafValues>
        6.8202987313270569e-02 -1.3911557197570801e-01</leafValues></_>
    <_>
      <internalNodes>
        0 -1 728 -1 -1 -2 -16842753 -1 -1 -12 2130640892</internalNodes>
      <leafValues>
        -1.3396804034709930e-01 7.3054678738117218e-02</leafValues></_>
    <_>
      <internalNodes>
        0 -1 2356 805207924 -1 -1 -1 2147450741 -1 2147450229 2147319797</internalNodes>
      <leafValues>
        1.8295054137706757e-01 -5.3795062005519867e-02</leafValues></_>
    <_>
      <internalNodes>
        0 -1 5042 753823240 835374 16712704 2276256 1082067968 68091654
        283578368 7665594</internalNodes>
      <leafValues>
        -1.1219466924667358e+00 1.1117392219603062e-02</leafValues></_>
    <_>
      <internalNodes>
        0 -1 5936 203951104 70131264 -1090617664 145753200 473185556
        1014824949 258546800 2098192</internalNodes>
      <leafValues>
        -1.6209700107574463e+00 9.8061347380280495e-03</leafValues></_>
    <_>
      <internalNodes>
        0 -1 22 205267968 41320291 1576295668 376930175 87323989
        1165457269 1433687156 359740789</internalNodes>
      <leafValues>
        -9.7322088479995728e-01 1.1534959077835083e-02</leafValues></_>
    <_>
      <internalNodes>
        0 -1 8438 -1 -268435457 -1 -285212673 -1 -1 -1 -1</internalNodes>
      <leafValues>
        9.3648433685302734e-02 -9.5556713640689850e-02</leafValues></_>
    <_>
      <internalNodes>
        0 -1 8374 -268435457 -1 -1 -1 -1 -1 -1 -1</internalNodes>
      <leafValues>
        -4.1103336960077286e-02 2.3252244293689728e-01</leafValues></_>
    <_>
      <internalNodes>
        0 -1 1412 -1 -268435457 -2 -16777217 -1 -1 -1 -1</internalNodes>
      <leafValues>
        -7.9807095229625702e-02 1.0817629843950272e-01</leafValues></_>
    <_>
      <internalNodes>
        0 -1 2716 -129 -1 -1 -1 -129 2147483647 -1 2147483647</internalNodes>
      <leafValues>
        -6.5194152295589447e-02 1.3409943878650665e-01</leafValues></_>
    <_>
      <internalNodes>
        0 -1 5707 -1090584578 -1073807361 -1 -1 -32769 -1 -1 754941951</internalNodes>
      <leafValues>
        -9.9893532693386078e-02 8.3432137966156006e-02</leafValues></_>
    <_>
      <internalNodes>
        0 -1 4942 -18 -1358954497 -18 -285212673 -32897 -1 -1 1879048191</internalNodes>
      <leafValues>
        1.5513178706169128e-01 -5.9580709785223007e-02</leafValues></_>
    <_>
      <internalNodes>
        0 -1 2592 114036268 35655398 -16884122 577384110 83100788
        72632132 1978955636 7620453</internalNodes>
      <leafValues>
        -7.9624038934707642e-01 1.3097807765007019e-02</leafValues></_>
    <_>
      <internalNodes>
        0 -1 3822 805273599 -1342177281 -1 -16842753 -1 -1 -1 2147450879</internalNodes>
      <leafValues>
        8.6104385554790497e-02 -1.0142739862203598e-01</leafValues></_>
    <_>
      <internalNodes>
        0 -1 5278 7275008 2879235 578495008 1656946535 7799808 8355415
        1627350052 821557207</internalNodes>
      <leafValues>
        -1.4151635169982910e+00 9.7555015236139297e-03</leafValues></_>
    <_>
      <internalNodes>
        0 -1 2292 -291363840 2097184 -1562350322 2109154 105256000
        4478020 1693826420 3438198</internalNodes>
      <leafValues>
        -1.8802486658096313e+00 8.0567533150315285e-03</leafValues></_>
    <_>
      <internalNodes>
        0 -1 1984 -2 -1 -2 -1 -1 2147483647 -1 2013265919</internalNodes>
      <leafValues>
        7.3224104940891266e-02 -1.1289614439010620e-01</leafValues></_>
    <_>
      <internalNodes>
        0 -1 4762 788426734 788463599 -2 -1359020034 2147450751
        2147483647 -32907 1727332340</internalNodes>
      <leafValues>
        1.7982462048530579e-01 -4.6689890325069427e-02</leafValues></_>
    <_>
      <internalNodes>
        0 -1 933 577708546 573505358 854467106 572702630 1199531780
        645922687 1442780516 7307127</internalNodes>
      <leafValues>
        -1.4420464038848877e+00 8.4371166303753853e-03</leafValues></_>
    <_>
      <internalNodes>
        0 -1 5058 -2069362176 67169792 10616960 2097316 754715968
        74756095 11405344 78650613</internalNodes>
      <leafValues>
        -1.2745151519775391e+00 8.9948158711194992e-03</leafValues></_>
    <_>
      <internalNodes>
        0 -1 5679 -1 -268435457 -1 -285212673 -1 -1 -9 2147483647</internalNodes>
      <leafValues>
        6.3340492546558380e-02 -1.3198199868202209e-01</leafValues></_>
    <_>
      <internalNodes>
        0 -1 3241 -16777218 -1427111938 -2 -285212673 -1 -1 -1
        1073741823</internalNodes>
      <leafValues>
        -1.1763460189104080e-01 7.9471796751022339e-02</leafValues></_>
    <_>
      <internalNodes>
        0 -1 57 -268439762 -268435457 -22 -1 -129 2147483647 -1
        2013265919</internalNodes>
      <leafValues>
        1.4225280284881592e-01 -6.7125722765922546e-02</leafValues></_>
    <_>
      <internalNodes>
        0 -1 4346 243412104 141954 41035786 10498 2088007924 788463550
        1685864532 69271026</internalNodes>
      <leafValues>
        -1.4409542083740234e+00 8.3466460928320885e-03</leafValues></_>
    <_>
      <internalNodes>
        0 -1 3772 740433952 292394 1120346658 2113122 132973940 73234295
        108004420 4465728</internalNodes>
      <leafValues>
        -1.1576410531997681e+00 1.0205510072410107e-02</leafValues></_>
    <_>
      <internalNodes>
        0 -1 1135 -1 -1 -1 -1 -129 -1 -137 -1</internalNodes>
      <leafValues>
        1.0350333154201508e-01 -7.9927355051040649e-02</leafValues></_>
    <_>
      <internalNodes>
        0 -1 124 788401664 -65538 -12 -2 -137 -1 -11 -32771</internalNodes>
      <leafValues>
        -2.3421607911586761e-01 4.0366318076848984e-02</leafValues></_>
    <_>
      <internalNodes>
        0 -1 6971 754928640 787480543 -285228000 716701687 83624964
        74938231 343372868 74872676</internalNodes>
      <leafValues>
        -9.2409193515777588e-01 1.0461738333106041e-02</leafValues></_>
    <_>
      <internalNodes>
        0 -1 8445 -2 -16777217 -1 -16842753 -1 -1 -1 -65539</internalNodes>
      <leafValues>
        -8.6698286235332489e-02 9.5265328884124756e-02</leafValues></_>
    <_>
      <internalNodes>
        0 -1 4633 73670656 2686826 3016704 2291490 317615180 39518061
        1080971268 3047180</internalNodes>
      <leafValues>
        -7.6983809471130371e-01 1.2404992245137691e-02</leafValues></_>
    <_>
      <internalNodes>
        0 -1 4837 -1094778882 788463615 -1 788496383 -65537 -1 -1
        1056899071</internalNodes>
      <leafValues>
        1.3414357602596283e-01 -6.6717796027660370e-02</leafValues></_>
    <_>
      <internalNodes>
        0 -1 3363 -65537 -1342177281 -1 -1 -1 -1 -1 2147483647</internalNodes>
      <leafValues>
        4.8357408493757248e-02 -1.7196914553642273e-01</leafValues></_>
    <_>
      <internalNodes>
        0 -1 6711 784084480 548732920 -1494340064 -1431765008 1425880576
        1148551029 78410848 2123636</internalNodes>
      <leafValues>
        -7.9588925838470459e-01 1.2307126075029373e-02</leafValues></_>
    <_>
      <internalNodes>
        0 -1 4447 -1078001666 -1073807361 -1 1879015423 -1 -1 -1
        2130640895</internalNodes>
      <leafValues>
        -8.1729009747505188e-02 9.6236407756805420e-02</leafValues></_>
    <_>
      <internalNodes>
        0 -1 931 543163392 4345030 547487746 572780526 1433687108
        71586884 1153720068 1432313709</internalNodes>
      <leafValues>
        -7.2950863838195801e-01 1.1449157260358334e-02</leafValues></_>
    <_>
      <internalNodes>
        0 -1 1168 -18 -1 -16781330 -16777217 -129 2013265919 -134250633
        2013265919</internalNodes>
      <leafValues>
        1.1331817507743835e-01 -6.8335786461830139e-02</leafValues></_>
    <_>
      <internalNodes>
        0 -1 3238 719998500 787132266 -286265688 552140770 1744727911
        106393599 -268468242 14972004</internalNodes>
      <leafValues>
        -7.3272019624710083e-01 1.3088254258036613e-02</leafValues></_>
    <_>
      <internalNodes>
        0 -1 5574 774636544 69495074 1861660192 551840630 217861200
        7757821 351557188 5526852</internalNodes>
      <leafValues>
        -1.3296754360198975e+00 8.5543384775519371e-03</leafValues></_>
    <_>
      <internalNodes>
        0 -1 949 73671168 790527864 -1358990224 1283356535 1433691476
        91716983 72614997 341050740</internalNodes>
      <leafValues>
        -1.2601556777954102e+00 9.3432627618312836e-03</leafValues></_>
    <_>
      <internalNodes>
        0 -1 889 2130705954 -8912897 2147446530 -8388609 -570425353
        2004877183 -536871052 2147483647</internalNodes>
      <leafValues>
        -1.3847644627094269e-01 5.6680720299482346e-02</leafValues></_>
    <_>
      <internalNodes>
        0 -1 5069 -1342177298 -1358954497 -2 -285278209 -1 2147483647 -9
        2147483647</internalNodes>
      <leafValues>
        1.2316241115331650e-01 -6.5539948642253876e-02</leafValues></_>
    <_>
      <internalNodes>
        0 -1 637 -1 -1 -1 -1 -1 2147483647 -1 -134217729</internalNodes>
      <leafValues>
        -5.4348308593034744e-02 1.4742965996265411e-01</leafValues></_>
    <_>
      <internalNodes>
        0 -1 738 -32897 -1 -1 -1 -129 -1 -1 -1</internalNodes>
      <leafValues>
        7.8019216656684875e-02 -1.1045808345079422e-01</leafValues></_>
    <_>
      <internalNodes>
        0 -1 395 -17904020 241618558 -258 645332983 1147491396 74728532
        1475868021 341136757</internalNodes>
      <leafValues>
        -7.0985358953475952e-01 1.4852677471935749e-02</leafValues></_></weakClassifiers></stage12>
</opencv_storage>
