<?xml version="1.0"?>
<opencv_storage>
<stage0>
  <maxWeakCount>14</maxWeakCount>
  <stageThreshold>-2.0707738399505615e+00</stageThreshold>
  <weakClassifiers>
    <_>
      <internalNodes>
        0 -1 3422 -274 -1048593 -54742 -1 -1 -1 -1 -1</internalNodes>
      <leafValues>
        -1.5698653459548950e+00 6.9163376092910767e-01</leafValues></_>
    <_>
      <internalNodes>
        0 -1 154 -410 1686073087 -2 2013265919 1467446903 1146377591
        1979056117 1475870711</internalNodes>
      <leafValues>
        -9.5115613937377930e-01 6.0065764188766479e-01</leafValues></_>
    <_>
      <internalNodes>
        0 -1 7498 -268435474 654311423 -1 1929379839 1879048063 92274687
        2147483647 1979711487</internalNodes>
      <leafValues>
        -7.1703720092773438e-01 5.7705563306808472e-01</leafValues></_>
    <_>
      <internalNodes>
        0 -1 5478 -25428086 -2001797130 1996488322 276232190 1610612484
        458716 369098606 343408623</internalNodes>
      <leafValues>
        -7.9603731632232666e-01 3.5957685112953186e-01</leafValues></_>
    <_>
      <internalNodes>
        0 -1 422 -146 -1 -2 -1 -137 -1 -9 -1</internalNodes>
      <leafValues>
        -3.7773257493972778e-01 6.2987351417541504e-01</leafValues></_>
    <_>
      <internalNodes>
        0 -1 7145 -403177754 787480563 -29 847249407 2013230966
        125828989 2013226997 930611199</internalNodes>
      <leafValues>
        -6.8162161111831665e-01 2.8275519609451294e-01</leafValues></_>
    <_>
      <internalNodes>
        0 -1 62 1157170208 1199046650 1207925250 859561979 100656462
        392166651 1442840057 1465646847</internalNodes>
      <leafValues>
        -8.1209295988082886e-01 1.9843398034572601e-01</leafValues></_>
    <_>
      <internalNodes>
        0 -1 2056 -17 -268435457 -2 -16777217 -1 2147483647 -1 -1</internalNodes>
      <leafValues>
        -2.8122010827064514e-01 4.4550496339797974e-01</leafValues></_>
    <_>
      <internalNodes>
        0 -1 8461 -1 -268435457 -2 -16842753 -1 -1 -9 -1</internalNodes>
      <leafValues>
        -2.0158661901950836e-01 5.9094321727752686e-01</leafValues></_>
    <_>
      <internalNodes>
        0 -1 45 984314464 577499134 1677697762 570130431 -2132641947
        1466892287 -1610645646 358316031</internalNodes>
      <leafValues>
        -8.1282299757003784e-01 1.5242238342761993e-01</leafValues></_>
    <_>
      <internalNodes>
        0 -1 5145 -65560 -2 -2 -1 -1 2147483647 -2 75464703</internalNodes>
      <leafValues>
        -2.8258043527603149e-01 4.0868473052978516e-01</leafValues></_>
    <_>
      <internalNodes>
        0 -1 6700 -18 -285212801 -14 -16777217 -32946 1207959551
        2147448822 2013265919</internalNodes>
      <leafValues>
        -6.6753011941909790e-01 1.7578001320362091e-01</leafValues></_>
    <_>
      <internalNodes>
        0 -1 23 2130595396 1064730494 -4 -99010 1442281333 1475870719
        1610505461 360022015</internalNodes>
      <leafValues>
        -6.0458379983901978e-01 1.7766059935092926e-01</leafValues></_>
    <_>
      <internalNodes>
        0 -1 1708 1718058530 -435716314 69389312 1177026119 1961882948
        1413873487 1442838008 1182400375</internalNodes>
      <leafValues>
        -8.5379546880722046e-01 1.4442145824432373e-01</leafValues></_></weakClassifiers></stage0>
</opencv_storage>
