<?xml version="1.0"?>
<opencv_storage>
<stage6>
  <maxWeakCount>100</maxWeakCount>
  <stageThreshold>-1.8945720195770264e+00</stageThreshold>
  <weakClassifiers>
    <_>
      <internalNodes>
        0 -1 5396 -1 -1073741825 -1 -1 -32769 -1 -1 -134217729</internalNodes>
      <leafValues>
        -7.5435644388198853e-01 4.1598466038703918e-01</leafValues></_>
    <_>
      <internalNodes>
        0 -1 943 -130 -1 -1 -1 -137 -1 -11 -1</internalNodes>
      <leafValues>
        -3.2398390769958496e-01 3.8182413578033447e-01</leafValues></_>
    <_>
      <internalNodes>
        0 -1 5534 -1 -1 -1 -1 -1 -1 -1 -134217729</internalNodes>
      <leafValues>
        -1.0392627120018005e-01 1.0848979949951172e+00</leafValues></_>
    <_>
      <internalNodes>
        0 -1 8460 -2 -16777217 -2 -16842754 -1 -1 -3 -65540</internalNodes>
      <leafValues>
        -3.2560530304908752e-01 2.4749328196048737e-01</leafValues></_>
    <_>
      <internalNodes>
        0 -1 4491 -280 -1048594 788478474 1006632954 -2 -1 -133 -1</internalNodes>
      <leafValues>
        -4.8174500465393066e-01 1.2379596382379532e-01</leafValues></_>
    <_>
      <internalNodes>
        0 -1 556 -1 -1 -1 -1 -1 2147483647 -1 -134217729</internalNodes>
      <leafValues>
        -7.0612877607345581e-02 5.0739258527755737e-01</leafValues></_>
    <_>
      <internalNodes>
        0 -1 6135 -1073840146 -1073807362 -2 -1342242819 -1 -1 -1
        620068853</internalNodes>
      <leafValues>
        -2.9727381467819214e-01 1.5918146073818207e-01</leafValues></_>
    <_>
      <internalNodes>
        0 -1 2072 -18 -1 -2 -1 -1 -1 -1 -1</internalNodes>
      <leafValues>
        -2.1397866308689117e-01 2.0364457368850708e-01</leafValues></_>
    <_>
      <internalNodes>
        0 -1 8012 -268435473 -268435457 -1 -1 -1 2147483647 -1
        2147483647</internalNodes>
      <leafValues>
        -1.8222352862358093e-01 2.0752367377281189e-01</leafValues></_>
    <_>
      <internalNodes>
        0 -1 6776 -17 -1 -2 -1 -1 -1 -1 -1</internalNodes>
      <leafValues>
        -6.5146535634994507e-02 4.4957631826400757e-01</leafValues></_>
    <_>
      <internalNodes>
        0 -1 5318 -98 -536870914 1610612699 1409286143 2147483423
        1601699839 1979711487 2013265919</internalNodes>
      <leafValues>
        -1.7938190698623657e-01 1.6354221105575562e-01</leafValues></_>
    <_>
      <internalNodes>
        0 -1 831 -2 2147483647 -18 2147483647 -1 2147483647 -1
        1610612735</internalNodes>
      <leafValues>
        -1.6109226644039154e-01 1.8697798252105713e-01</leafValues></_>
    <_>
      <internalNodes>
        0 -1 62 -18 -1 -18 -1 -1 2147483647 -1 2147483647</internalNodes>
      <leafValues>
        1.2761388719081879e-01 -1.9505088031291962e-01</leafValues></_>
    <_>
      <internalNodes>
        0 -1 6223 -16777496 -4 -16781778 -3 -146 -1 1056866167 888668157</internalNodes>
      <leafValues>
        -2.0701670646667480e-01 1.1497167497873306e-01</leafValues></_>
    <_>
      <internalNodes>
        0 -1 3647 -2 -1 -1 -1 -1 -1 -1 -1</internalNodes>
      <leafValues>
        -3.7094037979841232e-02 6.2593466043472290e-01</leafValues></_>
    <_>
      <internalNodes>
        0 -1 3771 -17 -1 -1 -1 -1 -1 -1 -1</internalNodes>
      <leafValues>
        -5.8701451867818832e-02 3.9124259352684021e-01</leafValues></_>
    <_>
      <internalNodes>
        0 -1 943 -32900 -1 -1 -1 -137 -1 -11 -3</internalNodes>
      <leafValues>
        1.7066036164760590e-01 -1.2120676785707474e-01</leafValues></_>
    <_>
      <internalNodes>
        0 -1 125 788401220 -65538 -12 -2 -137 -1 -11 -1073774596</internalNodes>
      <leafValues>
        -3.5973536968231201e-01 6.4231216907501221e-02</leafValues></_>
    <_>
      <internalNodes>
        0 -1 8 -145 -1 -1 -1 -129 -1 -1 -1</internalNodes>
      <leafValues>
        -1.0456631332635880e-01 2.1234695613384247e-01</leafValues></_>
    <_>
      <internalNodes>
        0 -1 1533 16261120 1981873962 41618946 35815226 -1795168588
        356515839 1157625466 1451228927</internalNodes>
      <leafValues>
        -5.8471548557281494e-01 3.3684495836496353e-02</leafValues></_>
    <_>
      <internalNodes>
        0 -1 160 49423364 6702126 1659265546 589786863 1162114372
        1141137476 347563847 84770639</internalNodes>
      <leafValues>
        -9.3729430437088013e-01 2.3954870179295540e-02</leafValues></_>
    <_>
      <internalNodes>
        0 -1 4386 -17 -1 -1 -1 -1 -1 -1 -1</internalNodes>
      <leafValues>
        6.5912373363971710e-02 -2.4788063764572144e-01</leafValues></_>
    <_>
      <internalNodes>
        0 -1 3522 -1 -1 -2 -1 -1 -1 -1 -1</internalNodes>
      <leafValues>
        -8.8170267641544342e-02 2.0738139748573303e-01</leafValues></_>
    <_>
      <internalNodes>
        0 -1 8372 -1342230673 -268435457 -1 -1 -32897 -1 -1 2147483647</internalNodes>
      <leafValues>
        -1.4729580283164978e-01 1.2764756381511688e-01</leafValues></_>
    <_>
      <internalNodes>
        0 -1 7129 -1 -1 -1 -1 -129 -1 -137 2147483647</internalNodes>
      <leafValues>
        1.2056791782379150e-01 -1.6506178677082062e-01</leafValues></_>
    <_>
      <internalNodes>
        0 -1 728 -1 -1 -1 -16777217 -1 -1 -1 -1</internalNodes>
      <leafValues>
        -5.0997015088796616e-02 3.6835673451423645e-01</leafValues></_>
    <_>
      <internalNodes>
        0 -1 7446 -1360069796 40009589 -65538 40959991 134217599 7864181
        905969535 70385525</internalNodes>
      <leafValues>
        -5.0015586614608765e-01 3.9466269314289093e-02</leafValues></_>
    <_>
      <internalNodes>
        0 -1 2937 -1 -2 -1 -16777217 -1 -1 -1 -1</internalNodes>
      <leafValues>
        -4.5959055423736572e-02 3.7516391277313232e-01</leafValues></_>
    <_>
      <internalNodes>
        0 -1 2485 -18 -16777217 -18 -285212673 -1 -1 -1 2013265919</internalNodes>
      <leafValues>
        1.3058677315711975e-01 -1.4114452898502350e-01</leafValues></_>
    <_>
      <internalNodes>
        0 -1 2155 -1476333984 2108074 1861380814 2257902 70614374
        69498735 963986231 7569407</internalNodes>
      <leafValues>
        -1.0814275741577148e+00 2.0629962906241417e-02</leafValues></_>
    <_>
      <internalNodes>
        0 -1 5851 1862151680 649002922 -285284736 14745576 2147446084
        805306351 2012706660 80052069</internalNodes>
      <leafValues>
        -8.3073997497558594e-01 2.2961912676692009e-02</leafValues></_>
    <_>
      <internalNodes>
        0 -1 5433 -18 -268435457 -18 -1 -129 -1 -10 -1</internalNodes>
      <leafValues>
        1.3448365032672882e-01 -1.1233903467655182e-01</leafValues></_>
    <_>
      <internalNodes>
        0 -1 6285 -18 -268435457 -26 -1 -129 -1 -9 -134217729</internalNodes>
      <leafValues>
        -1.8560856580734253e-01 1.0607924312353134e-01</leafValues></_>
    <_>
      <internalNodes>
        0 -1 7634 -1 -1 -1 -16777217 -1 -1 -9 -134217729</internalNodes>
      <leafValues>
        -7.8224383294582367e-02 1.9011484086513519e-01</leafValues></_>
    <_>
      <internalNodes>
        0 -1 1783 -130 -1 -1 -1 -1 -1 -3 -1</internalNodes>
      <leafValues>
        -5.9566706418991089e-02 2.9037967324256897e-01</leafValues></_>
    <_>
      <internalNodes>
        0 -1 5364 -1342242836 -1358954497 -18 -285278210 -1 -1 -1
        671088639</internalNodes>
      <leafValues>
        1.5559326112270355e-01 -1.1090698838233948e-01</leafValues></_>
    <_>
      <internalNodes>
        0 -1 5256 -1364288404 -1431371782 -268501010 75694058 -41602
        -1073741825 1862237796 218071039</internalNodes>
      <leafValues>
        -3.4849247336387634e-01 5.0754990428686142e-02</leafValues></_>
    <_>
      <internalNodes>
        0 -1 587 -320434688 -823722042 652633122 644808646 1416910148
        1146388309 -453643196 71596012</internalNodes>
      <leafValues>
        -8.8811713457107544e-01 2.0657541230320930e-02</leafValues></_>
    <_>
      <internalNodes>
        0 -1 8372 -1342177281 -268435457 -1 -268435457 -129 -1 -1
        2147483647</internalNodes>
      <leafValues>
        1.0778382420539856e-01 -1.3178412616252899e-01</leafValues></_>
    <_>
      <internalNodes>
        0 -1 7390 -32769 -1 -1 -1 -1 -1 -1 -1</internalNodes>
      <leafValues>
        3.8721285760402679e-02 -3.9025023579597473e-01</leafValues></_>
    <_>
      <internalNodes>
        0 -1 6483 1878737920 1068236776 -512 -1078984991 2013221888
        2147450751 1996444736 636977143</internalNodes>
      <leafValues>
        -4.4122251868247986e-01 3.7876829504966736e-02</leafValues></_>
    <_>
      <internalNodes>
        0 -1 8441 -1342177284 -285212673 -1 -16842753 -1 -1 -1 -65540</internalNodes>
      <leafValues>
        -1.3483616709709167e-01 1.0602047294378281e-01</leafValues></_>
    <_>
      <internalNodes>
        0 -1 750 238945280 1786150708 -1073783564 792608118 91517301
        930568053 72615248 271914357</internalNodes>
      <leafValues>
        -1.3433446884155273e+00 1.4597814530134201e-02</leafValues></_>
    <_>
      <internalNodes>
        0 -1 1035 -1 -268435457 -1 -16777217 2147450743 2013265919 -137
        2013265919</internalNodes>
      <leafValues>
        2.1926029026508331e-01 -6.7981101572513580e-02</leafValues></_>
    <_>
      <internalNodes>
        0 -1 120 -1342210193 -268435457 -1 -1 -129 -1 -1 -1</internalNodes>
      <leafValues>
        -1.2240754067897797e-01 1.3352052867412567e-01</leafValues></_>
    <_>
      <internalNodes>
        0 -1 6470 141960456 5601117 1358224734 813596671 5534720 1406741
        1434351383 1162966399</internalNodes>
      <leafValues>
        -1.0076125860214233e+00 1.8128301948308945e-02</leafValues></_>
    <_>
      <internalNodes>
        0 -1 3784 707456546 44747946 -1426134418 7473376 662466405
        41385847 1879012983 16056436</internalNodes>
      <leafValues>
        -8.9540326595306396e-01 1.9160157069563866e-02</leafValues></_>
    <_>
      <internalNodes>
        0 -1 1557 -268439553 788529151 -1 1660944383 2147483519
        2013265919 -1 2013265919</internalNodes>
      <leafValues>
        2.1330684423446655e-01 -6.3382565975189209e-02</leafValues></_>
    <_>
      <internalNodes>
        0 -1 1374 -1 -1 -2 -1 -1 -1 -9 -134217729</internalNodes>
      <leafValues>
        -7.3444917798042297e-02 2.2541147470474243e-01</leafValues></_>
    <_>
      <internalNodes>
        0 -1 1537 805191472 -1073741825 -1 -1 2147450741 2147483647
        -32907 1065189237</internalNodes>
      <leafValues>
        2.7200117707252502e-01 -4.8583474010229111e-02</leafValues></_>
    <_>
      <internalNodes>
        0 -1 333 788008000 -1090715780 -268501004 -1090764804 2147257924
        2130706431 2122087796 209460240</internalNodes>
      <leafValues>
        -7.7697515487670898e-01 1.9759427756071091e-02</leafValues></_>
    <_>
      <internalNodes>
        0 -1 4446 134876832 33554720 -285573214 2105378 654056948
        662108031 1054367612 2121012</internalNodes>
      <leafValues>
        -1.1833022832870483e+00 1.5671903267502785e-02</leafValues></_>
    <_>
      <internalNodes>
        0 -1 6880 -4 -1 -1 -1 -1 -1 -1 -3</internalNodes>
      <leafValues>
        5.4912000894546509e-02 -2.3210853338241577e-01</leafValues></_>
    <_>
      <internalNodes>
        0 -1 2931 -1398232032 10497056 1576959614 6442874 1194294900
        359955831 1610579957 3440503</internalNodes>
      <leafValues>
        -5.2367573976516724e-01 2.7323547750711441e-02</leafValues></_>
    <_>
      <internalNodes>
        0 -1 6336 -2 -268435457 -2 -16777217 -129 -1 -9 -150994945</internalNodes>
      <leafValues>
        -9.6452496945858002e-02 1.3017664849758148e-01</leafValues></_>
    <_>
      <internalNodes>
        0 -1 1127 -18 -268435457 -18 -16777217 -137 2013265919 -137
        2013265919</internalNodes>
      <leafValues>
        1.4715939760208130e-01 -9.2976734042167664e-02</leafValues></_>
    <_>
      <internalNodes>
        0 -1 8394 -1342177281 -268435457 -1 -1 -129 -1 -1 -1</internalNodes>
      <leafValues>
        -8.7546303868293762e-02 1.4502722024917603e-01</leafValues></_>
    <_>
      <internalNodes>
        0 -1 3411 -16842754 788463615 -1 788463615 -1 2147483647 -1
        2147483647</internalNodes>
      <leafValues>
        1.3044613599777222e-01 -1.0455770045518875e-01</leafValues></_>
    <_>
      <internalNodes>
        0 -1 4558 1794026496 545976290 2752512 10620928 1089141768
        1347878903 284127232 3078015</internalNodes>
      <leafValues>
        -8.3047217130661011e-01 1.9407097250223160e-02</leafValues></_>
    <_>
      <internalNodes>
        0 -1 8434 -1 -268435457 -1 -285212673 -1 -1 -1 2147483647</internalNodes>
      <leafValues>
        1.0938910394906998e-01 -1.1501633375883102e-01</leafValues></_>
    <_>
      <internalNodes>
        0 -1 4480 -1073807362 -65537 -1 -268435457 -1 -1 -1 2130706431</internalNodes>
      <leafValues>
        -8.0794043838977814e-02 1.6789801418781281e-01</leafValues></_>
    <_>
      <internalNodes>
        0 -1 296 213648896 52584295 -92392272 376928055 74727492
        72710007 1156842613 72635701</internalNodes>
      <leafValues>
        -1.4503488540649414e+00 1.3580290600657463e-02</leafValues></_>
    <_>
      <internalNodes>
        0 -1 8019 715271712 3342198 -29696006 538984311 142564706
        7864319 1711177080 7356210</internalNodes>
      <leafValues>
        -1.0149551630020142e+00 1.6269177198410034e-02</leafValues></_>
    <_>
      <internalNodes>
        0 -1 5242 -268440024 116326383 -16781344 1660878590 2147450628
        75497343 2097117044 1089798004</internalNodes>
      <leafValues>
        -8.0268418788909912e-01 1.8330328166484833e-02</leafValues></_>
    <_>
      <internalNodes>
        0 -1 5396 -18 -1342177281 -2 -285212673 -1 -1 -1 -1</internalNodes>
      <leafValues>
        1.0350321978330612e-01 -1.1958307772874832e-01</leafValues></_>
    <_>
      <internalNodes>
        0 -1 35 654206502 37384042 1795105522 549370618 1693349735
        83326847 1308622710 49772407</internalNodes>
      <leafValues>
        -8.7010228633880615e-01 1.8406307324767113e-02</leafValues></_>
    <_>
      <internalNodes>
        0 -1 7170 1190011980 37814100 -16810414 577789940 91577856
        5732180 75461893 1333233</internalNodes>
      <leafValues>
        -8.5157269239425659e-01 1.7538996413350105e-02</leafValues></_>
    <_>
      <internalNodes>
        0 -1 8238 788414334 788463615 -1 788463615 -32769 2147483647 -1
        787939325</internalNodes>
      <leafValues>
        2.0800186693668365e-01 -5.8908659964799881e-02</leafValues></_>
    <_>
      <internalNodes>
        0 -1 58 581829120 577699685 586031104 49020908 1190098757
        1195900791 1996453413 1180598271</internalNodes>
      <leafValues>
        -1.6723339557647705e+00 1.2450600974261761e-02</leafValues></_>
    <_>
      <internalNodes>
        0 -1 1036 1795129122 35943210 -83886478 540701306 1199003507
        5732214 1425499255 3172209</internalNodes>
      <leafValues>
        -1.5398426055908203e+00 1.3327109627425671e-02</leafValues></_>
    <_>
      <internalNodes>
        0 -1 4082 -18 -285212673 -18 -16777217 -1 -1 -1 2013265919</internalNodes>
      <leafValues>
        1.0438953340053558e-01 -1.1710455268621445e-01</leafValues></_>
    <_>
      <internalNodes>
        0 -1 5707 -1090584580 -1073807361 -1 -1090584577 -32769 -1 -1
        754941951</internalNodes>
      <leafValues>
        -1.4191481471061707e-01 9.9542990326881409e-02</leafValues></_>
    <_>
      <internalNodes>
        0 -1 5994 682756864 1013251812 -1360123904 580976630 385814272
        1425539071 887109152 325493</internalNodes>
      <leafValues>
        -9.1327327489852905e-01 1.7702855169773102e-02</leafValues></_>
    <_>
      <internalNodes>
        0 -1 4153 -1364310496 44756514 -1359059294 585265696 2147448644
        24641399 2130149204 1349810038</internalNodes>
      <leafValues>
        -1.7354103326797485e+00 1.2513754889369011e-02</leafValues></_>
    <_>
      <internalNodes>
        0 -1 7191 -1 -1 -1 -1 -129 -1 -9 -1</internalNodes>
      <leafValues>
        5.8703713119029999e-02 -2.1055039763450623e-01</leafValues></_>
    <_>
      <internalNodes>
        0 -1 5937 -18 -268435457 -2 -1 -1 -1 -9 -134217729</internalNodes>
      <leafValues>
        -1.1208283901214600e-01 1.0950372368097305e-01</leafValues></_>
    <_>
      <internalNodes>
        0 -1 5450 -1342177282 -1342177281 -1 -285212673 -1 -1 -1
        2147483647</internalNodes>
      <leafValues>
        9.8394297063350677e-02 -1.2345061451196671e-01</leafValues></_>
    <_>
      <internalNodes>
        0 -1 357 -320451518 69480046 -83968322 610531327 1145525604
        4215892 1417641716 72777716</internalNodes>
      <leafValues>
        -7.3386263847351074e-01 1.9001580774784088e-02</leafValues></_>
    <_>
      <internalNodes>
        0 -1 678 -1 -1 -1 -1 -1 2147483647 -1 -134217729</internalNodes>
      <leafValues>
        -5.9134189039468765e-02 2.0672081410884857e-01</leafValues></_>
    <_>
      <internalNodes>
        0 -1 3099 14683168 2231842 -285331804 581176946 1148474452
        71595876 1425309684 5514597</internalNodes>
      <leafValues>
        -1.0925692319869995e+00 1.4807338826358318e-02</leafValues></_>
    <_>
      <internalNodes>
        0 -1 8403 -1342226450 -285212673 -1 -16842753 -129 -1 -1 -1</internalNodes>
      <leafValues>
        -1.2810814380645752e-01 9.1332472860813141e-02</leafValues></_>
    <_>
      <internalNodes>
        0 -1 5717 -17892152 -1364525338 -65812 -1527840786 -402 -1
        -32782 83845119</internalNodes>
      <leafValues>
        -1.9126889109611511e-01 6.2404412776231766e-02</leafValues></_>
    <_>
      <internalNodes>
        0 -1 535 -1363800576 783564782 -16875780 847146998 612247040
        343162743 1156846912 3413072</internalNodes>
      <leafValues>
        -1.0235631465911865e+00 1.5069635584950447e-02</leafValues></_>
    <_>
      <internalNodes>
        0 -1 450 -18 -1 -16777234 -16777217 -32905 2013265791 -134217865
        2013265919</internalNodes>
      <leafValues>
        1.2811420857906342e-01 -9.2036128044128418e-02</leafValues></_>
    <_>
      <internalNodes>
        0 -1 3343 813859328 572714506 179175936 35798602 16733572
        1718091647 1198485344 741343214</internalNodes>
      <leafValues>
        -1.3925172090530396e+00 1.3315306976437569e-02</leafValues></_>
    <_>
      <internalNodes>
        0 -1 7269 -827396316 294884 2146434960 550698982 108483840 97600
        1153398609 3241840</internalNodes>
      <leafValues>
        -1.2263684272766113e+00 1.3929515145719051e-02</leafValues></_>
    <_>
      <internalNodes>
        0 -1 1830 -352393686 47099502 -1493176670 48948922 2004842340
        1182170983 -134252682 1433927287</internalNodes>
      <leafValues>
        -1.6259286403656006e+00 1.2399696744978428e-02</leafValues></_>
    <_>
      <internalNodes>
        0 -1 4445 -1359020034 787415022 -1 788463615 -1 -1 -1 788529151</internalNodes>
      <leafValues>
        1.6988281905651093e-01 -7.0570133626461029e-02</leafValues></_>
    <_>
      <internalNodes>
        0 -1 4445 -65538 -1073741825 -1 -268435457 -1 -1 -1 2147483647</internalNodes>
      <leafValues>
        -7.3871925473213196e-02 1.8139310181140900e-01</leafValues></_>
    <_>
      <internalNodes>
        0 -1 3172 -17 -1 -1 -16777217 -1 2147483647 -1 -1</internalNodes>
      <leafValues>
        -6.9822095334529877e-02 1.7169035971164703e-01</leafValues></_>
    <_>
      <internalNodes>
        0 -1 345 205276736 1310490487 -126060560 510558078 74712132
        357844823 1089753460 74732916</internalNodes>
      <leafValues>
        -1.0768029689788818e+00 1.4585061930119991e-02</leafValues></_>
    <_>
      <internalNodes>
        0 -1 2591 -1 -268435457 -1 -16777217 -129 2147483647 -1
        2013265919</internalNodes>
      <leafValues>
        8.6571082472801208e-02 -1.3640379905700684e-01</leafValues></_>
    <_>
      <internalNodes>
        0 -1 2144 1861119586 49212974 -5022 544407154 637499206 74939767
        1979151702 7693685</internalNodes>
      <leafValues>
        -8.4598875045776367e-01 1.6909781843423843e-02</leafValues></_>
    <_>
      <internalNodes>
        0 -1 618 103810112 1018711476 -16990624 576224888 394035008
        2130509309 343680100 2098180</internalNodes>
      <leafValues>
        -1.0533519983291626e+00 1.4809822663664818e-02</leafValues></_>
    <_>
      <internalNodes>
        0 -1 6260 749604388 682295202 -16843104 -2097217564 2147448645
        1207959551 1979678532 82116468</internalNodes>
      <leafValues>
        -6.6497159004211426e-01 2.1767171099781990e-02</leafValues></_>
    <_>
      <internalNodes>
        0 -1 5783 1219362816 2047537888 16646144 294535158 1316945920
        524222295 887291904 103561076</internalNodes>
      <leafValues>
        -1.0071963071823120e+00 1.4757217839360237e-02</leafValues></_>
    <_>
      <internalNodes>
        0 -1 4233 11469824 2817890 -1560874464 543227746 1728020294
        1147534967 1694496576 6717286</internalNodes>
      <leafValues>
        -1.1292721033096313e+00 1.4082131907343864e-02</leafValues></_>
    <_>
      <internalNodes>
        0 -1 3200 -285216978 787415023 -16781598 -1426128914 -188
        1149239167 -134219948 1157038071</internalNodes>
      <leafValues>
        -6.5463930368423462e-01 1.9006365910172462e-02</leafValues></_>
    <_>
      <internalNodes>
        0 -1 56 787359270 644874239 1660936866 586153983 2147446645
        1165983615 2013230951 1954545527</internalNodes>
      <leafValues>
        -8.7675815820693970e-01 1.5804190188646317e-02</leafValues></_>
    <_>
      <internalNodes>
        0 -1 8151 -2036172960 6470948 -1342243196 2158258 2138510948
        70532983 1845269840 1049712</internalNodes>
      <leafValues>
        -1.4158992767333984e+00 1.2611965648829937e-02</leafValues></_></weakClassifiers></stage6>
</opencv_storage>
