<?xml version="1.0"?>
<opencv_storage>
<stage8>
  <maxWeakCount>100</maxWeakCount>
  <stageThreshold>-1.9224252700805664e+00</stageThreshold>
  <weakClassifiers>
    <_>
      <internalNodes>
        0 -1 3022 -18 -1 -1 -65537 -1 -1 -1 -1</internalNodes>
      <leafValues>
        -7.3898005485534668e-01 3.0195239186286926e-01</leafValues></_>
    <_>
      <internalNodes>
        0 -1 6443 -1 -1073741825 -1 -1342177281 -1 -1 -1 -1358954497</internalNodes>
      <leafValues>
        -1.7620405554771423e-01 5.2395498752593994e-01</leafValues></_>
    <_>
      <internalNodes>
        0 -1 8 -209 -1 -1 -1 -129 -1 -1 -1</internalNodes>
      <leafValues>
        -2.4618241190910339e-01 3.1020975112915039e-01</leafValues></_>
    <_>
      <internalNodes>
        0 -1 6469 -1 2147483647 -1 -1 2147483647 2004877311 2013265791
        2013265919</internalNodes>
      <leafValues>
        -3.9790096879005432e-01 1.6297216713428497e-01</leafValues></_>
    <_>
      <internalNodes>
        0 -1 7779 -137 -1 -1 -1 -9 -1 -1 -1</internalNodes>
      <leafValues>
        -6.3816182315349579e-02 5.0668215751647949e-01</leafValues></_>
    <_>
      <internalNodes>
        0 -1 8380 -1342177297 -268435457 -1 -1 -129 -1 -1 -1</internalNodes>
      <leafValues>
        -1.8566495180130005e-01 2.3836877942085266e-01</leafValues></_>
    <_>
      <internalNodes>
        0 -1 661 -1 -1 -1 -1 -129 2147483647 -1 -134217729</internalNodes>
      <leafValues>
        -1.2502615153789520e-01 2.6617121696472168e-01</leafValues></_>
    <_>
      <internalNodes>
        0 -1 4946 -65874 -22085910 -67125330 871612351 -16842754 -1 -1
        1073741823</internalNodes>
      <leafValues>
        -2.8641590476036072e-01 1.3468463718891144e-01</leafValues></_>
    <_>
      <internalNodes>
        0 -1 6263 -1095209304 -1347616836 -16777502 -1359020036 -98305
        -1082130433 -16875657 83132277</internalNodes>
      <leafValues>
        -4.3174993991851807e-01 5.6953758001327515e-02</leafValues></_>
    <_>
      <internalNodes>
        0 -1 3851 -2 -1 -2 -1 -1 -1 -1 -1</internalNodes>
      <leafValues>
        -1.2214292585849762e-01 1.8449498713016510e-01</leafValues></_>
    <_>
      <internalNodes>
        0 -1 4900 -1073807364 -1073741825 -1 -32769 -1 -1 -1 1056866300</internalNodes>
      <leafValues>
        -1.6654504835605621e-01 1.4575983583927155e-01</leafValues></_>
    <_>
      <internalNodes>
        0 -1 6469 -1 1879048191 -1 -1 2013263743 2004877311 2013263735
        2013265919</internalNodes>
      <leafValues>
        2.7230453491210938e-01 -6.7359797656536102e-02</leafValues></_>
    <_>
      <internalNodes>
        0 -1 8462 -1 -1 -2 -16842754 -1 -1 -11 2147418109</internalNodes>
      <leafValues>
        -1.8252822756767273e-01 1.2867784500122070e-01</leafValues></_>
    <_>
      <internalNodes>
        0 -1 5265 -1057656 -273678686 -219160564 -521207809 2147441998
        -1 -1083808 801071103</internalNodes>
      <leafValues>
        -3.3438408374786377e-01 5.9551298618316650e-02</leafValues></_>
    <_>
      <internalNodes>
        0 -1 4937 -1 -268435457 -1 -16777217 -1 -1 -1 -1</internalNodes>
      <leafValues>
        7.2424866259098053e-02 -3.1597724556922913e-01</leafValues></_>
    <_>
      <internalNodes>
        0 -1 720 -1 -1 -2 -16777217 -1 -1 -11 -1</internalNodes>
      <leafValues>
        -1.1163011193275452e-01 1.8324023485183716e-01</leafValues></_>
    <_>
      <internalNodes>
        0 -1 153 577142356 8351487 -17641490 593952767 1350007927
        5595007 1970626549 7864319</internalNodes>
      <leafValues>
        -7.0256853103637695e-01 2.6356721296906471e-02</leafValues></_>
    <_>
      <internalNodes>
        0 -1 4447 -1094778882 788463614 -1 788430847 -1 -1 -1 1056899071</internalNodes>
      <leafValues>
        1.7659290134906769e-01 -1.0022231191396713e-01</leafValues></_>
    <_>
      <internalNodes>
        0 -1 4447 -1078001666 -1073807361 -1 1879015423 -1 -1 -1
        2130706431</internalNodes>
      <leafValues>
        -1.0860324651002884e-01 1.4960281550884247e-01</leafValues></_>
    <_>
      <internalNodes>
        0 -1 8038 -268435457 -1 -1 -1 -1 -1 -1 -1</internalNodes>
      <leafValues>
        -3.4765258431434631e-02 4.3628120422363281e-01</leafValues></_>
    <_>
      <internalNodes>
        0 -1 63 1148538400 2138570746 1148677634 2138308603 1442840319
        2004877311 1442840063 2004353023</internalNodes>
      <leafValues>
        -2.8065204620361328e-01 6.1471614986658096e-02</leafValues></_>
    <_>
      <internalNodes>
        0 -1 8380 -1342177281 -268435457 -1 -1 -1 -1 -1 2147483647</internalNodes>
      <leafValues>
        9.6261672675609589e-02 -1.4928509294986725e-01</leafValues></_>
    <_>
      <internalNodes>
        0 -1 8308 -268435457 -16777217 -1 -1 -1 -1 -1 -1</internalNodes>
      <leafValues>
        -5.3347323089838028e-02 2.9542249441146851e-01</leafValues></_>
    <_>
      <internalNodes>
        0 -1 8 -145 -1 -1 -1 -129 -1 -137 2147483647</internalNodes>
      <leafValues>
        1.2607997655868530e-01 -1.1385408788919449e-01</leafValues></_>
    <_>
      <internalNodes>
        0 -1 3373 -1 -1 -2 -1 -1 -1 -1 -1</internalNodes>
      <leafValues>
        -5.1526583731174469e-02 3.0638739466667175e-01</leafValues></_>
    <_>
      <internalNodes>
        0 -1 2696 -258 -1358954497 -1 -285212673 -1 -1 -1 2147483647</internalNodes>
      <leafValues>
        -1.2241166085004807e-01 1.1299583315849304e-01</leafValues></_>
    <_>
      <internalNodes>
        0 -1 7227 -1 -1 -1 -1 -129 -1 -9 -1</internalNodes>
      <leafValues>
        5.6899782270193100e-02 -2.3578523099422455e-01</leafValues></_>
    <_>
      <internalNodes>
        0 -1 5499 -1 -1 -2 -16777217 -1 2147483647 -9 2013265919</internalNodes>
      <leafValues>
        -1.2946929037570953e-01 1.0322839766740799e-01</leafValues></_>
    <_>
      <internalNodes>
        0 -1 4101 -18 -268435457 -18 -16777217 -1 -1 -1 2147483647</internalNodes>
      <leafValues>
        1.5227763354778290e-01 -1.1960749328136444e-01</leafValues></_>
    <_>
      <internalNodes>
        0 -1 4665 212340224 216072162 -1360130400 547520375 2147483508
        1442709495 -16777218 74735446</internalNodes>
      <leafValues>
        -4.9758896231651306e-01 2.9627460986375809e-02</leafValues></_>
    <_>
      <internalNodes>
        0 -1 68 -32769 -1 -1 -1 -1 -1 -1 -1</internalNodes>
      <leafValues>
        4.8517834395170212e-02 -2.7178058028221130e-01</leafValues></_>
    <_>
      <internalNodes>
        0 -1 131 -129 -1 -1 -1 -1 -1 -1 -1</internalNodes>
      <leafValues>
        -5.0061620771884918e-02 2.8100842237472534e-01</leafValues></_>
    <_>
      <internalNodes>
        0 -1 5242 -17 -268435457 -2 -1 -129 2147483647 -10 -134217729</internalNodes>
      <leafValues>
        -1.2264994531869888e-01 1.0222589224576950e-01</leafValues></_>
    <_>
      <internalNodes>
        0 -1 316 -1 -1 -1 -1 -1 2147483647 -1 -1</internalNodes>
      <leafValues>
        -4.6176318079233170e-02 2.5650829076766968e-01</leafValues></_>
    <_>
      <internalNodes>
        0 -1 2810 784301951 788463615 -1 1862270975 2147450743
        2013265919 2147483647 2013233151</internalNodes>
      <leafValues>
        1.6235046088695526e-01 -7.8430473804473877e-02</leafValues></_>
    <_>
      <internalNodes>
        0 -1 4084 -1 -268435457 -1 -1 -1 -1 -1 -1</internalNodes>
      <leafValues>
        -5.0690907984972000e-02 2.4109587073326111e-01</leafValues></_>
    <_>
      <internalNodes>
        0 -1 5308 721363456 1795096422 -521150304 -1430261833 1744794372
        1393000311 1711241024 1160740735</internalNodes>
      <leafValues>
        -6.3447731733322144e-01 2.0663483068346977e-02</leafValues></_>
    <_>
      <internalNodes>
        0 -1 210 477021248 69487738 -218972242 577208319 1162114132
        67392596 1366654965 22544373</internalNodes>
      <leafValues>
        -9.0725868940353394e-01 1.5129794366657734e-02</leafValues></_>
    <_>
      <internalNodes>
        0 -1 68 -1342292114 -1 -1 -1 -137 -1 -3 -1</internalNodes>
      <leafValues>
        -1.2442242354154587e-01 8.7456084787845612e-02</leafValues></_>
    <_>
      <internalNodes>
        0 -1 3482 -65537 788463615 -1 1862205439 -1 2147483647 -1
        2147483647</internalNodes>
      <leafValues>
        1.0757834464311600e-01 -1.1168207228183746e-01</leafValues></_>
    <_>
      <internalNodes>
        0 -1 6157 1526691144 39059442 1929377376 333119487 1903653184
        1196654415 1442272580 1414887287</internalNodes>
      <leafValues>
        -4.6502634882926941e-01 2.7215948328375816e-02</leafValues></_>
    <_>
      <internalNodes>
        0 -1 7366 -32769 -1 -1 -1 -1 -1 -1 -1</internalNodes>
      <leafValues>
        3.8118172436952591e-02 -3.3237051963806152e-01</leafValues></_>
    <_>
      <internalNodes>
        0 -1 6504 -107012 -1073741826 -1 -1073741825 -129 -1 -9
        -1392640001</internalNodes>
      <leafValues>
        -1.0558835417032242e-01 1.2733682990074158e-01</leafValues></_>
    <_>
      <internalNodes>
        0 -1 2447 81808512 6433826 783961602 8539694 351556932
        1430683460 2147450332 73922559</internalNodes>
      <leafValues>
        -6.2475359439849854e-01 2.2217208519577980e-02</leafValues></_>
    <_>
      <internalNodes>
        0 -1 4226 799934976 698542762 581575200 573760418 1568612100
        1199538039 1979152246 7831415</internalNodes>
      <leafValues>
        -1.4138900041580200e+00 1.2591721490025520e-02</leafValues></_>
    <_>
      <internalNodes>
        0 -1 2816 -1 -268435457 -1 -1 -1 -1 -1 2147483647</internalNodes>
      <leafValues>
        5.9397682547569275e-02 -1.9243325293064117e-01</leafValues></_>
    <_>
      <internalNodes>
        0 -1 2748 715792896 581592810 183378464 179236554 1969710404
        795311990 1811894212 242143094</internalNodes>
      <leafValues>
        -1.0847088098526001e+00 1.4564359560608864e-02</leafValues></_>
    <_>
      <internalNodes>
        0 -1 3817 9306120 9107978 11411456 11468534 68047372 202178511
        1122390538 3077934</internalNodes>
      <leafValues>
        -1.0624092817306519e+00 1.3383583165705204e-02</leafValues></_>
    <_>
      <internalNodes>
        0 -1 2513 -18 -285212673 -16777234 -285278209 -1 2147483647 -1
        2013265919</internalNodes>
      <leafValues>
        1.1554967612028122e-01 -9.1207399964332581e-02</leafValues></_>
    <_>
      <internalNodes>
        0 -1 8012 -268439569 -268435457 -1 -1 -129 2147483647 -1
        2147483647</internalNodes>
      <leafValues>
        -9.7471870481967926e-02 1.0805585980415344e-01</leafValues></_>
    <_>
      <internalNodes>
        0 -1 1587 805183348 -1 -1 -1 2147450741 -1 2147450741 1073053045</internalNodes>
      <leafValues>
        2.4826841056346893e-01 -4.8018101602792740e-02</leafValues></_>
    <_>
      <internalNodes>
        0 -1 4510 572656672 134220800 -1073861896 137363744 310148468
        528416637 788299380 7363696</internalNodes>
      <leafValues>
        -7.8557604551315308e-01 1.7034530639648438e-02</leafValues></_>
    <_>
      <internalNodes>
        0 -1 6573 1205286152 13696984 234845952 1886707701 880227588
        85360390 7734532 340870228</internalNodes>
      <leafValues>
        -7.6218193769454956e-01 1.5165442600846291e-02</leafValues></_>
    <_>
      <internalNodes>
        0 -1 460 -65538 -1 -1 -1 -1 -1 -3 -65539</internalNodes>
      <leafValues>
        -7.7045448124408722e-02 1.3375994563102722e-01</leafValues></_>
    <_>
      <internalNodes>
        0 -1 8429 -1 -268435457 -1 -285212673 -1 -1 -1 -1</internalNodes>
      <leafValues>
        9.4333432614803314e-02 -1.0885360836982727e-01</leafValues></_>
    <_>
      <internalNodes>
        0 -1 6107 142609408 11038184 -1631682848 81805152 1073036356
        1073184765 -1091272992 2100580</internalNodes>
      <leafValues>
        -1.3223344087600708e+00 1.2318675406277180e-02</leafValues></_>
    <_>
      <internalNodes>
        0 -1 8428 -1364262944 -286326786 -65540 -16842756 -4 -1 -65540
        939294716</internalNodes>
      <leafValues>
        -2.3663111031055450e-01 4.4520560652017593e-02</leafValues></_>
    <_>
      <internalNodes>
        0 -1 1412 -1 -268435457 -2 -16777217 -1 -1 -1 -1</internalNodes>
      <leafValues>
        -8.0832682549953461e-02 1.3185177743434906e-01</leafValues></_>
    <_>
      <internalNodes>
        0 -1 5042 -18 -1 -18 -1 -145 2147483647 -9 2013265919</internalNodes>
      <leafValues>
        9.1472029685974121e-02 -1.1474527418613434e-01</leafValues></_>
    <_>
      <internalNodes>
        0 -1 5353 5043848 8978312 8918018 13893370 1144474888 67132676
        284636178 268597119</internalNodes>
      <leafValues>
        -7.1553850173950195e-01 1.9004024565219879e-02</leafValues></_>
    <_>
      <internalNodes>
        0 -1 2497 653004296 6309410 -16847108 48377720 1147421780
        71653239 1725855093 6555507</internalNodes>
      <leafValues>
        -7.8687256574630737e-01 1.6035616397857666e-02</leafValues></_>
    <_>
      <internalNodes>
        0 -1 4546 782928898 134753792 217722540 1536 1828478798 70119413
        606920042 2113396</internalNodes>
      <leafValues>
        -8.1286877393722534e-01 1.4362125657498837e-02</leafValues></_>
    <_>
      <internalNodes>
        0 -1 7450 -32769 -1 -1 -1 -32905 -1 -32907 2147450741</internalNodes>
      <leafValues>
        1.3064292073249817e-01 -7.7302813529968262e-02</leafValues></_>
    <_>
      <internalNodes>
        0 -1 7734 -129 -1 -1 -1 -32769 -1 -1 -1</internalNodes>
      <leafValues>
        -3.6001183092594147e-02 3.0796277523040771e-01</leafValues></_>
    <_>
      <internalNodes>
        0 -1 226 587145762 586084334 587080192 586088366 1988065109
        1112539007 1207911236 124780407</internalNodes>
      <leafValues>
        -1.4053233861923218e+00 7.7328421175479889e-03</leafValues></_>
    <_>
      <internalNodes>
        0 -1 4394 -2098216448 774700844 -487593440 573505487 1290694208
        1148059487 1719627332 1719631735</internalNodes>
      <leafValues>
        -8.7800657749176025e-01 1.3599294237792492e-02</leafValues></_>
    <_>
      <internalNodes>
        0 -1 6654 783942656 -1884815576 -352383488 -1360855051
        2004833284 376930303 1358853184 1626634100</internalNodes>
      <leafValues>
        -9.4384384155273438e-01 1.2884098105132580e-02</leafValues></_>
    <_>
      <internalNodes>
        0 -1 3873 171583520 44179498 -1359315030 3150946 553598838
        435451775 654071413 5701716</internalNodes>
      <leafValues>
        -8.8170057535171509e-01 1.3118622824549675e-02</leafValues></_>
    <_>
      <internalNodes>
        0 -1 71 244198912 5156642 1862184448 547942370 1736398592
        125828982 1163474192 1058164</internalNodes>
      <leafValues>
        -1.2169076204299927e+00 1.0820186696946621e-02</leafValues></_>
    <_>
      <internalNodes>
        0 -1 5433 -18 -268435457 -18 -1 -1 -1 -10 -1</internalNodes>
      <leafValues>
        1.0058028995990753e-01 -9.2982932925224304e-02</leafValues></_>
    <_>
      <internalNodes>
        0 -1 224 72353280 606432839 6293248 1647538175 1413825540
        68437828 1148273664 1414881109</internalNodes>
      <leafValues>
        -7.8942692279815674e-01 1.4762429520487785e-02</leafValues></_>
    <_>
      <internalNodes>
        0 -1 6927 612306248 7667549 -151028992 1920925694 1433884162
        1079465797 930575940 292910965</internalNodes>
      <leafValues>
        -1.6095604896545410e+00 1.0232075117528439e-02</leafValues></_>
    <_>
      <internalNodes>
        0 -1 8185 -1 -1 -2 -16777217 -1 -1 -1 -134217729</internalNodes>
      <leafValues>
        -6.3934609293937683e-02 1.4631266891956329e-01</leafValues></_>
    <_>
      <internalNodes>
        0 -1 8232 788430718 788463615 -1 -1359282177 -1 2147483647 -1
        788463615</internalNodes>
      <leafValues>
        1.8093398213386536e-01 -5.8917753398418427e-02</leafValues></_>
    <_>
      <internalNodes>
        0 -1 5464 -1730672640 715566592 16392704 820572160 2130445316
        796884847 15728640 8840515</internalNodes>
      <leafValues>
        -1.3754421472549438e+00 1.0450336150825024e-02</leafValues></_>
    <_>
      <internalNodes>
        0 -1 430 -16875700 -16842881 -4 -65537 1979021124 1970601847
        1442674676 343168503</internalNodes>
      <leafValues>
        -2.6241844892501831e-01 3.5755835473537445e-02</leafValues></_>
    <_>
      <internalNodes>
        0 -1 795 -32769 -1 -1 -1 -1 -1 -1 -1</internalNodes>
      <leafValues>
        4.7226119786500931e-02 -2.1818993985652924e-01</leafValues></_>
    <_>
      <internalNodes>
        0 -1 4226 -210 -268435457 -16777490 -285212673 -129 2147483647
        -9 1962934271</internalNodes>
      <leafValues>
        1.9052386283874512e-01 -5.5489063262939453e-02</leafValues></_>
    <_>
      <internalNodes>
        0 -1 5 0 644399036 -1073774752 783957764 -277602459 -1610612865
        536754004 481574740</internalNodes>
      <leafValues>
        -1.3344266414642334e+00 1.1952305212616920e-02</leafValues></_>
    <_>
      <internalNodes>
        0 -1 2226 13240352 65290 10616834 2289322 82837364 339214206
        75497419 1465319423</internalNodes>
      <leafValues>
        -7.5342309474945068e-01 1.4983870089054108e-02</leafValues></_>
    <_>
      <internalNodes>
        0 -1 6359 77604352 673251312 -1364318688 -1364394012 1155364352
        473120761 1122137152 2373492</internalNodes>
      <leafValues>
        -9.2994070053100586e-01 1.2392805889248848e-02</leafValues></_>
    <_>
      <internalNodes>
        0 -1 5019 -1342177281 -268435457 -1 -285212673 -1 -1 -1
        2147483647</internalNodes>
      <leafValues>
        9.3691200017929077e-02 -9.8255269229412079e-02</leafValues></_>
    <_>
      <internalNodes>
        0 -1 5019 -268435457 -268435457 -1 -1 -1 -1 -1 -1</internalNodes>
      <leafValues>
        -5.9282369911670685e-02 1.8457858264446259e-01</leafValues></_>
    <_>
      <internalNodes>
        0 -1 2059 -2 -1 -2 -1 -1 -1 -1 2147483647</internalNodes>
      <leafValues>
        -6.8805918097496033e-02 1.6338719427585602e-01</leafValues></_>
    <_>
      <internalNodes>
        0 -1 161 1685194820 2378822 -1561189750 560463855 1433687364
        1141130452 1421082372 17563534</internalNodes>
      <leafValues>
        -6.5535026788711548e-01 1.7714953050017357e-02</leafValues></_>
    <_>
      <internalNodes>
        0 -1 6394 -1073741828 -1073741825 -1 -1 -1 -1 -3 1073709053</internalNodes>
      <leafValues>
        -6.9780305027961731e-02 1.3355323672294617e-01</leafValues></_>
    <_>
      <internalNodes>
        0 -1 3385 -2098199552 707197966 715784704 44174234 1353678132
        1686110079 1417111392 1412431799</internalNodes>
      <leafValues>
        -9.2409640550613403e-01 1.3533378951251507e-02</leafValues></_>
    <_>
      <internalNodes>
        0 -1 8044 77735936 7221118 1052670702 3309162 83821572 8273781
        352276196 3149428</internalNodes>
      <leafValues>
        -1.5156080722808838e+00 9.3936882913112640e-03</leafValues></_>
    <_>
      <internalNodes>
        0 -1 1768 618793986 2228738 1860324902 3630 1425282116 71655236
        1962178486 74809191</internalNodes>
      <leafValues>
        -1.1137788295745850e+00 1.1016727425158024e-02</leafValues></_>
    <_>
      <internalNodes>
        0 -1 3022 -1 -268435457 -1 -16842753 -1 2147483647 -1 2013265919</internalNodes>
      <leafValues>
        8.1124044954776764e-02 -1.1456658691167831e-01</leafValues></_>
    <_>
      <internalNodes>
        0 -1 6269 -280 -2 -16777684 -3 -178 -1 -16875657 889061373</internalNodes>
      <leafValues>
        -1.3183926045894623e-01 7.4421122670173645e-02</leafValues></_>
    <_>
      <internalNodes>
        0 -1 58 -268439762 -268435457 -18 -1 -129 2147483647 2147483647
        2147483647</internalNodes>
      <leafValues>
        1.2839187681674957e-01 -8.6640819907188416e-02</leafValues></_>
    <_>
      <internalNodes>
        0 -1 8387 69216768 245907302 250556002 44984124 108877124
        75464567 308563236 67403124</internalNodes>
      <leafValues>
        -1.1560016870498657e+00 1.1420284397900105e-02</leafValues></_>
    <_>
      <internalNodes>
        0 -1 49 586097186 644808547 1660351008 586678262 1744791366
        360709983 1467447109 1988067191</internalNodes>
      <leafValues>
        -7.8824150562286377e-01 1.4024393633008003e-02</leafValues></_>
    <_>
      <internalNodes>
        0 -1 5248 145228832 673713568 -74244 203967728 1073679700
        805273598 -1627583148 70518112</internalNodes>
      <leafValues>
        -1.0580203533172607e+00 1.1569318361580372e-02</leafValues></_>
    <_>
      <internalNodes>
        0 -1 3787 134348800 10486784 -1359577172 2120544 376510324
        1064588791 1073240061 7353204</internalNodes>
      <leafValues>
        -8.8290208578109741e-01 1.2725650332868099e-02</leafValues></_>
    <_>
      <internalNodes>
        0 -1 4992 784236536 788463614 -1 -1359052801 -1 -1 -1 654082044</internalNodes>
      <leafValues>
        1.7710448801517487e-01 -5.5253524333238602e-02</leafValues></_>
    <_>
      <internalNodes>
        0 -1 8073 773860864 6455157 1048243962 572555124 587161364
        7602045 251559160 2111410</internalNodes>
      <leafValues>
        -1.1985918283462524e+00 1.0858142748475075e-02</leafValues></_>
    <_>
      <internalNodes>
        0 -1 6039 136580608 10811104 -286765376 678100988 1592556624
        68976508 1690072384 13903732</internalNodes>
      <leafValues>
        -9.1568624973297119e-01 1.2017420493066311e-02</leafValues></_>
    <_>
      <internalNodes>
        0 -1 789 7471104 572714862 42606592 572734322 1416058180
        1197441007 1464009732 86048709</internalNodes>
      <leafValues>
        -9.5079308748245239e-01 1.1952117085456848e-02</leafValues></_></weakClassifiers></stage8>
</opencv_storage>
