<?xml version="1.0"?>
<opencv_storage>
<stage3>
  <maxWeakCount>68</maxWeakCount>
  <stageThreshold>-1.6472126245498657e+00</stageThreshold>
  <weakClassifiers>
    <_>
      <internalNodes>
        0 -1 6701 -1 -1 -1 -1 -1 2147483647 -1 -134217729</internalNodes>
      <leafValues>
        -9.8830890655517578e-01 3.4353166818618774e-01</leafValues></_>
    <_>
      <internalNodes>
        0 -1 642 -2 -1 -2 -16842753 -11 -1 -12 -65540</internalNodes>
      <leafValues>
        -5.7720792293548584e-01 4.8359775543212891e-01</leafValues></_>
    <_>
      <internalNodes>
        0 -1 352 -1 -1 -1 -1 -1 2147483647 -1 -134217729</internalNodes>
      <leafValues>
        -3.4241363406181335e-01 6.2052589654922485e-01</leafValues></_>
    <_>
      <internalNodes>
        0 -1 8411 -268435458 -285212673 -1 -16842753 -1 -1 -1 -1</internalNodes>
      <leafValues>
        -2.7224266529083252e-01 5.5863595008850098e-01</leafValues></_>
    <_>
      <internalNodes>
        0 -1 5967 -66 -1 -1 -1 -18 2147483647 -2 -1</internalNodes>
      <leafValues>
        -1.9413226842880249e-01 6.8774205446243286e-01</leafValues></_>
    <_>
      <internalNodes>
        0 -1 4946 -16843090 -22085910 -82006 636731327 -50528514 -1
        2130690047 1073741823</internalNodes>
      <leafValues>
        -4.4001895189285278e-01 1.9789391756057739e-01</leafValues></_>
    <_>
      <internalNodes>
        0 -1 8454 -2 -16842753 -2 -16842753 -1 -1 -3 -65540</internalNodes>
      <leafValues>
        -2.3996083438396454e-01 3.6312478780746460e-01</leafValues></_>
    <_>
      <internalNodes>
        0 -1 4803 -2 -1 -2 -1 -32769 -1 -1 -268468225</internalNodes>
      <leafValues>
        -1.6801211237907410e-01 4.3597778677940369e-01</leafValues></_>
    <_>
      <internalNodes>
        0 -1 63 1693543968 1954021370 1124036098 2138308603 1441787631
        1971322623 1577057789 2004353023</internalNodes>
      <leafValues>
        -4.4937911629676819e-01 1.6549426317214966e-01</leafValues></_>
    <_>
      <internalNodes>
        0 -1 70 -1090777484 -1 -1 -1 -137 -1 -3 -1073774596</internalNodes>
      <leafValues>
        -4.0694165229797363e-01 1.6525337100028992e-01</leafValues></_>
    <_>
      <internalNodes>
        0 -1 7061 -17 -268435457 -2 -1 -129 2147483647 -1 -134217729</internalNodes>
      <leafValues>
        -1.7371329665184021e-01 2.7838706970214844e-01</leafValues></_>
    <_>
      <internalNodes>
        0 -1 6586 -17 -1 -2 -1 -1 -1 -1 -1</internalNodes>
      <leafValues>
        -9.1039642691612244e-02 5.4232549667358398e-01</leafValues></_>
    <_>
      <internalNodes>
        0 -1 2044 784236066 572685934 -150995076 540703346 333348727
        7763959 1593734270 7821175</internalNodes>
      <leafValues>
        -8.7773942947387695e-01 6.8645521998405457e-02</leafValues></_>
    <_>
      <internalNodes>
        0 -1 4026 -1 -268435457 -1 -16777217 -1 -1 -1 2147483647</internalNodes>
      <leafValues>
        1.4624737203121185e-01 -3.9449304342269897e-01</leafValues></_>
    <_>
      <internalNodes>
        0 -1 15 788139072 -8462978 -33284 -1073783298 402618229
        2138963967 1425888629 880019829</internalNodes>
      <leafValues>
        -7.2995066642761230e-01 8.0857336521148682e-02</leafValues></_>
    <_>
      <internalNodes>
        0 -1 3785 37398560 178403490 -268500994 2243634 762867574
        771119103 1065319798 3617884</internalNodes>
      <leafValues>
        -1.1580851078033447e+00 5.1074959337711334e-02</leafValues></_>
    <_>
      <internalNodes>
        0 -1 2008 -18 -268435457 -2 -1 -1 2147483647 -9 -134217729</internalNodes>
      <leafValues>
        -2.0491081476211548e-01 1.9136336445808411e-01</leafValues></_>
    <_>
      <internalNodes>
        0 -1 3481 -1 -268435457 -1 -16777217 -1 -1 -1 2147483647</internalNodes>
      <leafValues>
        1.0809665173292160e-01 -3.5180032253265381e-01</leafValues></_>
    <_>
      <internalNodes>
        0 -1 5723 1722706944 699330346 -1410404864 724467503 2012161792
        1669300095 1856470848 69697399</internalNodes>
      <leafValues>
        -1.3446147441864014e+00 4.7297399491071701e-02</leafValues></_>
    <_>
      <internalNodes>
        0 -1 2078 11174432 3337898 2753034 36355818 16766675 1946615807
        1157623371 1459551931</internalNodes>
      <leafValues>
        -1.3712681531906128e+00 4.1452985256910324e-02</leafValues></_>
    <_>
      <internalNodes>
        0 -1 2177 -2 -1 -2 -1 -1 -1 -1 -1</internalNodes>
      <leafValues>
        1.3576607406139374e-01 -3.3788123726844788e-01</leafValues></_>
    <_>
      <internalNodes>
        0 -1 211 -17 -1 -2 -1 -1 2147483647 -1 -134217729</internalNodes>
      <leafValues>
        -1.5824724733829498e-01 2.7118122577667236e-01</leafValues></_>
    <_>
      <internalNodes>
        0 -1 1554 783961672 3550838 -16876314 52591986 74740804 74481521
        1475638517 5531511</internalNodes>
      <leafValues>
        -1.1863642930984497e+00 5.0780698657035828e-02</leafValues></_>
    <_>
      <internalNodes>
        0 -1 6369 -1 -1 -1 -1 -1 -1 -1 -16842755</internalNodes>
      <leafValues>
        -8.1551499664783478e-02 4.7802931070327759e-01</leafValues></_>
    <_>
      <internalNodes>
        0 -1 5504 -1 -268435457 -1 -285212673 -1 -1 -1 2147483647</internalNodes>
      <leafValues>
        1.6522659361362457e-01 -2.3891146481037140e-01</leafValues></_>
    <_>
      <internalNodes>
        0 -1 4111 -386941430 174915246 16736256 10682082 1879035470
        1155989359 1742729744 117440510</internalNodes>
      <leafValues>
        -1.0214432477951050e+00 4.6729575842618942e-02</leafValues></_>
    <_>
      <internalNodes>
        0 -1 6095 1083233280 444366586 352076800 771153910 1450442752
        1465218932 343285760 607475060</internalNodes>
      <leafValues>
        -1.0565223693847656e+00 4.7140084207057953e-02</leafValues></_>
    <_>
      <internalNodes>
        0 -1 4227 203556864 232816620 783186976 576863090 2013232481
        2138439671 -687901194 7698294</internalNodes>
      <leafValues>
        -9.3309503793716431e-01 4.6229664236307144e-02</leafValues></_>
    <_>
      <internalNodes>
        0 -1 4356 1862217516 784269295 -285213024 587137019 1610567492
        393215871 2004842324 1442283383</internalNodes>
      <leafValues>
        -1.2335435152053833e+00 3.8488853722810745e-02</leafValues></_>
    <_>
      <internalNodes>
        0 -1 8019 -1364541572 712966143 -65538 774930431 805273087
        931135487 2147483645 125206519</internalNodes>
      <leafValues>
        -3.9081007242202759e-01 9.3404583632946014e-02</leafValues></_>
    <_>
      <internalNodes>
        0 -1 6701 -1 -1 -1 -1 -129 2147483647 -1 2013265919</internalNodes>
      <leafValues>
        1.8236124515533447e-01 -1.8096409738063812e-01</leafValues></_>
    <_>
      <internalNodes>
        0 -1 6766 -17 -1 -2 -1 -129 2147483647 -1 -134217729</internalNodes>
      <leafValues>
        -1.5586185455322266e-01 2.6607602834701538e-01</leafValues></_>
    <_>
      <internalNodes>
        0 -1 6701 -1 -1 -1 -1 -1 -1 -1 2147483647</internalNodes>
      <leafValues>
        -7.6081804931163788e-02 5.1049679517745972e-01</leafValues></_>
    <_>
      <internalNodes>
        0 -1 670 -1 -1 -1 -1 -1 2147483647 -1 -1</internalNodes>
      <leafValues>
        -7.7562771737575531e-02 5.1791113615036011e-01</leafValues></_>
    <_>
      <internalNodes>
        0 -1 580 -17 -1 -1 -1 -1 2147483647 -1 -134217729</internalNodes>
      <leafValues>
        -1.3972756266593933e-01 2.3198319971561432e-01</leafValues></_>
    <_>
      <internalNodes>
        0 -1 8143 -1431636480 6733638 -285278232 10551226 805295732
        7863927 2147438420 3151984</internalNodes>
      <leafValues>
        -1.1840693950653076e+00 3.7880543619394302e-02</leafValues></_>
    <_>
      <internalNodes>
        0 -1 7100 -1 -1 -1 -1 -129 2147483647 -1 -1</internalNodes>
      <leafValues>
        -8.2643069326877594e-02 3.6686456203460693e-01</leafValues></_>
    <_>
      <internalNodes>
        0 -1 527 -18 -1 -18 -16777217 -129 2147483647 -9 2013265919</internalNodes>
      <leafValues>
        1.8530821800231934e-01 -1.7253682017326355e-01</leafValues></_>
    <_>
      <internalNodes>
        0 -1 51 585245184 602865646 586820098 586084203 1207916132
        391609847 1610579812 1106704247</internalNodes>
      <leafValues>
        -1.0585923194885254e+00 4.2551301419734955e-02</leafValues></_>
    <_>
      <internalNodes>
        0 -1 5830 -1096235968 713751554 2147155136 604520192 2147376648
        805306367 919934576 7634805</internalNodes>
      <leafValues>
        -7.4454545974731445e-01 4.5470792800188065e-02</leafValues></_>
    <_>
      <internalNodes>
        0 -1 2692 -18 -268435457 -2 -16777217 -1 -1 -1 -1</internalNodes>
      <leafValues>
        -1.6120676696300507e-01 1.9463153183460236e-01</leafValues></_>
    <_>
      <internalNodes>
        0 -1 352 -1 -268435457 -1 -1 -1 2147483647 -1 2013265919</internalNodes>
      <leafValues>
        2.2026987373828888e-01 -1.4754363894462585e-01</leafValues></_>
    <_>
      <internalNodes>
        0 -1 8 -145 -1 -1 -1 -129 -1 -1 -1</internalNodes>
      <leafValues>
        -1.0125882178544998e-01 3.4796896576881409e-01</leafValues></_>
    <_>
      <internalNodes>
        0 -1 980 821193762 1986461287 37366784 658472831 1426017380
        89653084 1475834948 1451228924</internalNodes>
      <leafValues>
        -6.4139252901077271e-01 5.6865829974412918e-02</leafValues></_>
    <_>
      <internalNodes>
        0 -1 3923 111685152 35793442 720530446 35662506 477372380
        107151231 2122219120 542277493</internalNodes>
      <leafValues>
        -1.3025022745132446e+00 3.7561062723398209e-02</leafValues></_>
    <_>
      <internalNodes>
        0 -1 22 641475840 796032618 -571121932 260013374 95909745
        376928119 99898484 87119221</internalNodes>
      <leafValues>
        -8.3786219358444214e-01 3.9780702441930771e-02</leafValues></_>
    <_>
      <internalNodes>
        0 -1 213 -1494342144 644771686 -285236640 552271598 1157461844
        58163071 1475868244 24641375</internalNodes>
      <leafValues>
        -1.1165935993194580e+00 3.1598743051290512e-02</leafValues></_>
    <_>
      <internalNodes>
        0 -1 6275 -1 -1 -1 -1 -1 2147483647 -1 -134217729</internalNodes>
      <leafValues>
        -9.4366729259490967e-02 2.8270560503005981e-01</leafValues></_>
    <_>
      <internalNodes>
        0 -1 3288 134359144 136456200 -1427050578 2110024 359677268
        523663230 1060994420 2129790</internalNodes>
      <leafValues>
        -1.4540979862213135e+00 3.0714411288499832e-02</leafValues></_>
    <_>
      <internalNodes>
        0 -1 2941 -18 -285212673 -18 -16777217 -1 2147483647 -1
        2147483647</internalNodes>
      <leafValues>
        1.9604973495006561e-01 -1.5276150405406952e-01</leafValues></_>
    <_>
      <internalNodes>
        0 -1 1144 1321094212 -1359057029 -81924 -1090846801 620046084
        628371447 74732848 3151188</internalNodes>
      <leafValues>
        -8.5766130685806274e-01 3.9517931640148163e-02</leafValues></_>
    <_>
      <internalNodes>
        0 -1 8187 -1543524568 -1360330774 -268435872 652410738
        1610577783 1148714879 1971322708 1148499828</internalNodes>
      <leafValues>
        -1.0326113700866699e+00 3.5144116729497910e-02</leafValues></_>
    <_>
      <internalNodes>
        0 -1 5258 780717184 235601576 -17797394 44199810 2113690748
        1073643519 1325366386 36855162</internalNodes>
      <leafValues>
        -6.3114553689956665e-01 4.7835845500230789e-02</leafValues></_>
    <_>
      <internalNodes>
        0 -1 443 -18 -285212673 -2 -16777217 -1 2013265919 -1 2013265919</internalNodes>
      <leafValues>
        1.8398116528987885e-01 -1.5582890808582306e-01</leafValues></_>
    <_>
      <internalNodes>
        0 -1 7402 37364328 540245887 1652477556 544897020 100611906
        24346491 637490290 7738612</internalNodes>
      <leafValues>
        -1.1920026540756226e+00 3.4947127103805542e-02</leafValues></_>
    <_>
      <internalNodes>
        0 -1 5956 -17 -268435457 -2 -1 -1 -1 -1 -134217729</internalNodes>
      <leafValues>
        -1.1433529853820801e-01 2.5145557522773743e-01</leafValues></_>
    <_>
      <internalNodes>
        0 -1 5199 -1 -268435457 -1 -285278209 -129 -1 -137 2147483647</internalNodes>
      <leafValues>
        1.5979415178298950e-01 -1.8934854865074158e-01</leafValues></_>
    <_>
      <internalNodes>
        0 -1 2206 -1 -1 -2 -1 -1 -1 -1 -1</internalNodes>
      <leafValues>
        -6.0585126280784607e-02 4.8552918434143066e-01</leafValues></_>
    <_>
      <internalNodes>
        0 -1 6075 -1364295732 -1074069505 -2 -1358954497 -32769 -1 -9
        754270205</internalNodes>
      <leafValues>
        -2.5184240937232971e-01 1.2537443637847900e-01</leafValues></_>
    <_>
      <internalNodes>
        0 -1 523 -286282206 605486958 -488150880 48426734 1568036164
        1415020374 1744789252 91584511</internalNodes>
      <leafValues>
        -8.1507986783981323e-01 4.1664618998765945e-02</leafValues></_>
    <_>
      <internalNodes>
        0 -1 3280 -1090584578 1073676287 -1 -65537 -1 -1 -1 2013233151</internalNodes>
      <leafValues>
        -1.2950862944126129e-01 2.2719290852546692e-01</leafValues></_>
    <_>
      <internalNodes>
        0 -1 7359 -1 -1 -1 -1 -1 -1 -9 -134217729</internalNodes>
      <leafValues>
        -7.6187029480934143e-02 3.7239956855773926e-01</leafValues></_>
    <_>
      <internalNodes>
        0 -1 13 -130 -1 -1 -1 -1 -1 -3 -1</internalNodes>
      <leafValues>
        -8.4368571639060974e-02 3.7619447708129883e-01</leafValues></_>
    <_>
      <internalNodes>
        0 -1 6662 788459144 641335284 -1090769408 -84410369 1693922816
        1079410532 82141696 74611829</internalNodes>
      <leafValues>
        -7.8194165229797363e-01 4.0193174034357071e-02</leafValues></_>
    <_>
      <internalNodes>
        0 -1 579 -2008380412 104885794 -319881502 582156030 1414808644
        72771414 -151750924 7624311</internalNodes>
      <leafValues>
        -1.3445272445678711e+00 2.9180563986301422e-02</leafValues></_>
    <_>
      <internalNodes>
        0 -1 2156 -1642059712 8746 577792910 2240366 203839060 67400950
        1886514968 6750070</internalNodes>
      <leafValues>
        -1.3383859395980835e+00 2.7568118646740913e-02</leafValues></_>
    <_>
      <internalNodes>
        0 -1 4409 -1 -268435457 -1 -16777217 -1 -1 -1 -1</internalNodes>
      <leafValues>
        8.2280874252319336e-02 -3.6701956391334534e-01</leafValues></_>
    <_>
      <internalNodes>
        0 -1 6606 -1073807364 -1073741825 -1 -285212673 -129 -1 -9
        -184615051</internalNodes>
      <leafValues>
        -1.4215752482414246e-01 1.8334984779357910e-01</leafValues></_></weakClassifiers></stage3>
</opencv_storage>
